<?xml version="1.0"?>
<opencv_storage>
<opencv_ml_svm>
  <format>3</format>
  <svmType>C_SVC</svmType>
  <kernel>
    <type>LINEAR</type></kernel>
  <C>1.</C>
  <term_criteria><epsilon>1.1920928955078125e-07</epsilon>
    <iterations>1000</iterations></term_criteria>
  <var_count>11520</var_count>
  <class_count>4</class_count>
  <class_labels type_id="opencv-matrix">
    <rows>4</rows>
    <cols>1</cols>
    <dt>i</dt>
    <data>
      0 1 2 3</data></class_labels>
  <sv_total>6</sv_total>
  <support_vectors>
    <_>
      -3.01956277e-07 -1.19948609e-05 -9.26074154e-06 -6.94340861e-06
      -6.43382646e-06 -4.07610787e-06 -2.28538483e-05 2.82858809e-06
      -5.91862454e-06 -5.22755226e-06 -3.76291973e-06 -8.62520028e-06
      -1.29487989e-05 -7.66102585e-06 -9.82992151e-06 2.10504186e-06
      -1.53207311e-05 -6.45838611e-07 1.81867824e-06 -6.57093278e-06
      -3.79777066e-06 -1.02466265e-06 -1.22410411e-05 -7.60436706e-06
      4.04070192e-07 8.06375226e-07 -8.15737224e-07 -3.07139658e-06
      7.34186597e-06 2.17936740e-05 -2.16184544e-05 -7.66765879e-06
      -2.28658268e-06 -8.81481992e-06 -8.08100992e-07 1.28257489e-05
      -7.10973700e-06 -2.23662701e-05 -1.79996478e-05 5.88390367e-06
      -1.86388243e-05 1.01635112e-06 1.49982989e-05 2.51715610e-05
      -7.86732835e-06 -3.65059095e-05 -3.31905790e-06 -2.87892976e-06
      -9.35096250e-06 2.44527564e-05 1.64465055e-05 4.39408404e-06
      -3.60942636e-06 -5.19639252e-06 -1.73913177e-05 -2.06445184e-05
      -2.95853880e-07 5.96814971e-06 7.66737571e-07 2.58002842e-06
      6.67220729e-06 -2.38295655e-07 -2.24006762e-05 -5.56328496e-06
      1.41861856e-05 2.67284522e-05 1.25929901e-05 2.02085903e-05
      1.42097915e-05 -1.24805656e-05 -5.42985035e-08 -1.41142186e-06
      1.31657071e-05 4.30757473e-06 6.25415669e-06 2.92549048e-05
      2.81119828e-05 -4.66545353e-05 -2.66344468e-05 -3.46592469e-06
      6.41147017e-06 2.00406430e-05 6.66512324e-06 4.31067701e-06
      4.91627998e-06 -1.11168247e-05 -2.94216297e-05 -4.07661937e-05
      2.42325177e-06 2.36504329e-05 4.84257043e-06 -3.52477446e-06
      2.35174343e-06 3.06111906e-06 1.98687360e-07 -4.23363463e-06
      2.09097998e-05 2.46678010e-05 8.90591946e-06 1.43449861e-05
      3.21554471e-05 1.27798621e-05 5.06106426e-06 1.53810652e-06
      1.90055835e-05 9.29257840e-06 1.55249418e-05 2.19357407e-05
      3.78113546e-05 -1.50475771e-05 -3.29921795e-06 1.94367640e-05
      2.63322345e-05 9.03405271e-06 1.13169590e-05 5.74747673e-06
      8.70145504e-06 1.11600248e-05 -4.26837886e-07 3.41919804e-06
      2.58763248e-06 3.81270293e-05 2.06424647e-05 2.02757492e-05
      -7.62848504e-06 -3.85227452e-07 1.92745983e-06 1.13271062e-06
      -1.41093835e-06 -3.25365568e-06 3.02216017e-06 -3.60865556e-07
      -3.57062163e-06 -7.39994221e-06 1.35656719e-05 -5.10537848e-06
      -1.79516810e-05 1.77468849e-06 6.62801904e-06 1.99439796e-06
      -2.46572254e-05 -8.12517101e-06 1.71549946e-05 7.50985237e-06
      -2.26941520e-05 -3.20442341e-05 4.90105776e-06 8.05655782e-06
      6.86609155e-06 5.04096306e-06 1.96830406e-05 3.94165654e-05
      -1.41762428e-07 -1.45335807e-05 2.14238821e-06 5.57094836e-06
      6.06193589e-06 7.58474971e-06 9.95590472e-06 4.20349534e-05
      -7.37944765e-06 -2.19658020e-07 -7.04126342e-06 -3.45397598e-06
      -1.17534737e-05 8.77053253e-07 2.27083146e-05 7.61527099e-06
      -2.08848214e-05 -1.51507993e-06 2.30254932e-06 2.20422098e-05
      1.03607017e-05 -1.81597579e-06 6.97122914e-06 -6.58328645e-06
      1.85451995e-06 -1.04047228e-06 5.76633101e-06 2.16174567e-06
      -8.95627454e-06 -9.88162537e-06 -4.39722999e-06 7.58283431e-06
      -2.72735542e-06 -1.43529405e-05 -6.12939584e-06 2.67707355e-06
      2.87175499e-06 7.62082345e-06 5.48544085e-06 6.86871317e-06
      7.87409954e-06 1.10733054e-05 1.87681562e-05 7.73185911e-06
      -7.09884762e-06 -1.06107218e-05 -3.23129302e-06 3.31874480e-06
      -1.03144785e-05 -1.17461850e-05 5.80704545e-06 1.62146280e-05
      1.17857517e-05 -2.30036076e-05 -3.37683218e-06 -2.66327493e-06
      1.90466744e-06 5.39172288e-06 3.03588126e-06 -6.55275289e-06
      -6.01854026e-06 -7.46058504e-06 -6.63195408e-07 -1.31350744e-05
      -5.20093545e-06 -6.06979984e-06 1.66039972e-05 2.06146597e-05
      1.07915448e-05 -6.35371271e-06 -4.53301755e-06 -6.26664678e-06
      1.44302330e-05 7.38969902e-06 1.59328902e-05 1.47360988e-05
      4.95947506e-06 -7.12093424e-06 -4.67793552e-06 3.30725106e-06
      1.12246507e-05 -4.39117503e-06 1.30711442e-05 2.65749368e-05
      5.45179910e-06 -2.37704571e-05 -8.99797215e-06 5.71628243e-06
      1.07874648e-05 3.65527148e-06 1.37634752e-05 1.89775699e-06
      -4.94298229e-06 -2.54582710e-06 -2.86241152e-06 -1.22698816e-06
      -7.52102460e-06 -1.26621835e-05 3.01286109e-05 4.53118300e-05
      1.09316306e-05 2.73864930e-06 -7.06462799e-07 -1.31076858e-05
      1.64690118e-05 3.04537184e-06 5.56989608e-06 -1.23820446e-05
      -2.77830022e-05 -3.82694525e-05 1.66813916e-05 2.15450873e-05
      -1.23089867e-05 -2.91185606e-05 -1.81469331e-05 -1.38509049e-05
      1.42876297e-05 -1.02044896e-05 6.77155049e-06 9.17259854e-07
      1.37988272e-05 -3.12472839e-05 -7.05146795e-06 1.00516070e-06
      2.64195887e-06 -2.22065546e-06 1.25928018e-05 -1.60887466e-05
      -2.89744958e-06 -5.34813353e-06 -3.40716656e-06 6.16191846e-06
      3.09332900e-05 2.96667695e-05 6.26490282e-06 -1.80906482e-05
      3.78581281e-05 9.43415580e-06 -7.31698083e-06 -1.92368971e-05
      -2.94825186e-05 -2.02987248e-05 8.05141917e-06 6.54486166e-06
      -2.79163396e-05 -1.04654073e-05 8.99341103e-06 1.72841210e-05
      1.37552106e-05 -1.80582319e-05 -6.57608143e-06 -1.48075524e-05
      1.07481519e-05 -9.21317678e-06 1.52529792e-05 2.33737546e-06
      -1.28222473e-05 -1.32113455e-05 -4.18082118e-06 -1.09456287e-05
      -1.79575836e-05 -5.88811599e-06 3.80557640e-06 8.07550259e-06
      3.35229088e-05 3.32271447e-05 4.33012247e-06 -1.16894425e-05
      3.87028122e-05 9.30686292e-06 1.34023940e-05 1.32544292e-05
      -7.78222147e-06 -2.17373399e-05 -1.61760199e-05 7.40057430e-06
      -7.66647645e-06 -2.11601655e-05 -2.14844704e-07 3.51765302e-05
      2.03865129e-05 -1.46302691e-05 -1.49783418e-05 -8.17960427e-06
      1.22565389e-05 1.46581697e-05 -3.21472129e-07 -1.19085962e-05
      -9.21654646e-06 2.06369782e-06 -1.51155268e-06 -2.28603822e-05
      -2.04813769e-05 4.07871721e-06 3.49986003e-05 1.08630202e-05
      1.62040510e-06 2.14404336e-05 9.76523188e-06 -1.07221058e-05
      1.37899851e-05 -6.68460916e-06 1.34947550e-05 2.06639888e-05
      8.90550746e-06 -5.84558938e-06 -6.16650732e-06 1.19664164e-05
      1.28700067e-05 -4.91070614e-06 1.54269874e-05 4.03497579e-05
      1.46720085e-05 -2.74264730e-05 -2.16053013e-05 1.17991667e-05
      2.00326995e-05 1.35548426e-05 1.91292947e-05 2.87965918e-06
      -7.81373444e-07 4.42150667e-06 -1.22050969e-05 -3.13508781e-06
      -1.84934852e-05 8.27338772e-06 4.38800853e-05 1.43045363e-05
      -8.38412052e-06 3.75412219e-06 2.59126336e-05 -1.34928678e-05
      1.10098263e-05 -9.45185320e-07 -2.61889545e-06 -2.01277544e-05
      -2.44132534e-05 -6.15391627e-07 2.10518774e-05 1.41662240e-05
      -4.99426108e-07 -5.17922626e-06 -1.89133880e-05 -5.01065460e-06
      2.42351889e-05 1.42719518e-05 1.06022362e-05 -4.28195699e-06
      2.80931563e-05 -9.23972948e-06 -6.09985455e-06 -1.79982953e-06
      -1.21787962e-05 -8.77388902e-06 1.62111537e-05 2.48581109e-05
      2.38445500e-06 -1.99561800e-05 -1.62404413e-05 -4.57265878e-06
      -1.09037035e-06 1.66695409e-05 2.60070883e-05 2.29794841e-05
      2.31731428e-05 5.58785769e-06 -1.08067634e-05 -2.01504208e-05
      -3.79691955e-05 -6.28481121e-06 2.31077738e-05 2.12209707e-05
      -3.31890988e-05 -1.03499997e-05 -9.71615827e-06 8.32944079e-06
      3.44241744e-05 1.83964239e-05 4.85175087e-06 -2.20491474e-05
      4.96937282e-05 1.02029517e-05 -4.03342455e-07 -7.39385678e-06
      -2.78949137e-05 -2.23830175e-05 -6.17341402e-06 8.44115220e-06
      2.06168366e-07 -1.01890055e-05 -5.71326200e-06 -4.54129491e-07
      -3.69632812e-06 -1.28697402e-05 -5.58268857e-06 -1.20467439e-05
      4.80871095e-05 3.10600590e-05 3.55329280e-06 -2.75406182e-06
      -2.78210027e-05 -2.97197003e-05 -1.31829847e-05 1.45874692e-05
      -2.52845221e-05 -4.17116571e-05 -1.61408243e-05 1.01753112e-05
      4.46367885e-05 2.67006362e-05 1.48864119e-05 -1.67744508e-06
      4.52470158e-05 -1.23436826e-06 -2.09136069e-05 -2.83486334e-05
      -1.98223497e-05 5.62228593e-08 1.70156727e-05 1.72821128e-05
      -1.97569116e-05 -2.00558316e-06 4.31777562e-06 1.18169237e-06
      3.29002296e-06 -5.72963199e-06 -3.72497266e-06 -2.21889022e-05
      3.92055663e-05 9.65404251e-06 1.61163116e-05 2.83061718e-06
      1.53672181e-06 -3.39654071e-05 -1.42487152e-05 1.28218535e-05
      5.33629009e-06 4.99051521e-06 1.35618047e-05 1.74000652e-05
      2.61008845e-05 -4.96054818e-05 -3.05332578e-05 -7.20410299e-06
      1.45122194e-05 1.68217139e-05 8.47479623e-06 -7.09273252e-07
      1.59873991e-06 -1.45315016e-05 -2.16420176e-05 -1.99513106e-05
      -1.59072133e-05 8.77761795e-06 1.43806055e-05 1.95803368e-05
      -1.11700331e-06 -5.48119124e-06 -1.42458330e-05 -9.88274769e-06
      5.43694341e-06 -1.76448179e-06 8.74915622e-06 -7.69181679e-06
      -1.31821071e-05 -2.22652870e-05 -1.72015752e-05 1.68423921e-05
      -1.93056676e-05 -2.03504387e-05 -8.90246974e-06 -5.08562471e-06
      3.01370164e-06 -1.09032044e-05 1.30760791e-05 1.04647388e-05
      -2.40692407e-06 -2.53020025e-05 -9.83487189e-06 -8.05630498e-06
      -1.74508477e-05 3.82841336e-06 2.66205225e-05 3.31286901e-05
      -2.32476191e-06 -1.24531687e-06 -1.36497292e-05 -9.45473130e-06
      -7.74882665e-06 3.01871751e-05 1.43395519e-05 1.25417509e-05
      9.39011898e-06 -4.31793114e-06 -3.13324949e-06 -1.60019190e-05
      -1.52981720e-05 -1.05632198e-05 1.79517174e-05 2.18507612e-05
      -1.74592187e-05 -5.16232467e-06 2.21055120e-06 2.03488780e-05
      8.68744223e-07 -1.41430137e-05 1.21389621e-06 -1.11565396e-06
      3.40595898e-06 8.66667961e-06 7.48261391e-06 7.00974488e-06
      -1.57621616e-05 -2.06490113e-05 -6.77510934e-06 -1.91365825e-06
      -5.37399092e-06 1.85848899e-06 -1.59891397e-06 8.63562218e-06
      8.32363355e-07 -8.64605954e-06 -1.17649124e-05 -7.65674667e-06
      1.67143062e-05 4.30175132e-05 1.21739922e-05 6.43737121e-06
      -1.36827648e-05 -7.78608046e-06 -7.27564293e-06 -4.45945716e-06
      -1.75403075e-05 -1.08309332e-05 3.29655848e-07 1.24231065e-05
      7.64257675e-06 -5.09242909e-07 7.55093424e-07 -4.33987134e-06
      9.59062254e-06 -2.01622197e-06 -2.71053841e-06 -1.50206290e-06
      -1.52012972e-05 -6.97186306e-06 6.16675834e-06 4.67418158e-06
      -1.66531227e-05 -4.07469906e-06 2.96285361e-06 2.45162464e-05
      1.20921786e-05 -1.31341367e-05 -3.90600690e-06 -4.35269749e-06
      2.88111896e-05 3.15488869e-05 1.29703276e-05 1.68347469e-05
      -1.07457072e-06 1.48671124e-05 7.93299876e-07 -1.06491950e-06
      1.54376703e-05 1.57508221e-05 2.58265700e-05 3.18580569e-05
      -9.70667134e-06 -3.14454846e-05 -1.59137126e-05 -4.44277930e-06
      6.80774110e-06 -1.17826776e-05 1.48103218e-05 1.17405498e-05
      -5.48708249e-06 -1.67398211e-05 -1.33908516e-05 -3.50106984e-06
      -6.82017480e-06 -8.05951549e-06 9.54092775e-06 3.72462127e-05
      1.52773664e-05 1.19088291e-07 -3.60648573e-06 9.73815440e-06
      1.45439731e-06 -2.80238601e-06 7.11995881e-06 2.90934486e-06
      -6.19222874e-06 1.41621413e-05 9.16460340e-06 -8.56012061e-09
      7.91117418e-06 5.89217007e-06 9.47413355e-07 -8.07894230e-06
      -7.55907058e-06 8.31160924e-06 1.28245038e-05 -3.37734218e-06
      6.85025861e-06 8.89567127e-06 -8.90977503e-07 -8.18400258e-06
      -1.36749013e-05 -4.96298617e-06 -4.25970347e-06 -1.28730589e-05
      -5.27494694e-06 -1.17713962e-05 -1.02468284e-05 1.83960950e-07
      1.15911025e-05 1.67183280e-05 -2.73504043e-06 -9.43091578e-08
      -2.79246410e-06 -7.65839013e-06 -4.03821929e-07 1.79959969e-07
      -7.00541477e-06 7.56746522e-06 5.31342266e-06 7.81983908e-06
      -1.36369672e-05 -8.36646723e-06 -6.69450992e-06 -1.21378525e-05
      -1.03888169e-06 4.14615397e-06 6.35028346e-06 -1.89938692e-06
      1.23394113e-06 7.03069236e-06 -3.18868342e-06 -2.23209759e-06
      -6.96313373e-06 -6.96091502e-06 -7.26449070e-06 8.51998777e-07
      3.37175561e-06 7.52639323e-07 -3.05461253e-06 9.61813112e-06
      9.55037285e-06 -1.31267707e-05 -1.61048556e-05 -1.36855840e-06
      4.57825854e-06 2.60144807e-05 3.36759949e-05 8.21727826e-06
      -6.70981808e-06 -9.70274959e-06 -6.99331758e-06 2.96698090e-06
      -6.44406555e-06 -3.60169508e-07 1.28800302e-05 -1.88642815e-07
      -6.73301940e-07 -3.55302018e-06 1.36649533e-06 -4.43731005e-06
      -9.98244559e-06 7.80418941e-06 -7.44326087e-07 -4.36587607e-06
      -3.09697975e-06 -2.97663632e-06 1.87537569e-06 -1.01993082e-05
      -4.98940472e-06 7.96075619e-06 3.15335069e-06 3.85789144e-06
      1.44018077e-05 3.08649669e-06 -3.03976140e-06 -3.77224774e-06
      1.32031018e-05 1.29201089e-05 3.69221234e-05 5.49761535e-06
      -7.34837249e-06 1.59316787e-05 1.75640689e-05 4.30308774e-06
      -4.64619370e-06 1.41117216e-05 2.69887514e-05 6.80532276e-06
      -7.40863652e-06 -1.66942045e-05 4.00286763e-06 2.10358667e-06
      2.13318754e-06 2.42839105e-05 2.58310320e-06 2.32312891e-06
      1.55995224e-06 -5.22533719e-06 -1.53634699e-06 -1.60361815e-05
      -4.77911908e-06 2.15235577e-05 8.73778390e-06 1.14727845e-05
      5.41432019e-06 9.74735667e-06 8.66228334e-07 -6.60633214e-06
      1.18043965e-06 7.64475953e-06 1.24870894e-05 -1.78913597e-05
      -7.00072860e-06 1.08982667e-05 4.04283099e-07 5.32792910e-07
      1.49698044e-05 -8.40065059e-06 -1.54595109e-05 -3.02675744e-05
      -5.47737136e-06 1.79820254e-05 7.93398522e-06 -1.92253037e-06
      -2.94998813e-06 -2.93660542e-05 -1.01597489e-05 -1.01012138e-05
      -5.06315564e-06 -8.21174308e-06 1.28277061e-05 7.02392117e-06
      8.77203490e-07 -1.25680272e-05 -1.91561753e-06 8.00957696e-06
      1.36218669e-05 3.43371698e-06 3.24404300e-06 1.27267085e-05
      6.81832853e-06 3.78495270e-06 2.28247109e-06 -9.53868948e-07
      -1.59767824e-05 1.08216864e-05 2.17964644e-05 -1.15206503e-05
      -3.42687827e-06 1.44136766e-06 1.19305432e-05 1.86375255e-05
      7.73961983e-06 1.29954708e-06 -4.25545011e-07 -6.32248066e-06
      1.23902264e-05 1.08122740e-05 1.22096599e-05 3.35316054e-06
      -8.84306792e-06 -1.27263884e-05 -7.94750576e-06 -3.48407116e-06
      3.80277606e-06 -7.05450975e-06 -1.19028000e-05 3.68626161e-06
      1.44131764e-05 2.38791654e-06 -2.60955176e-06 1.72183081e-06
      2.66691550e-05 -1.28751162e-05 2.21582877e-06 1.07214146e-05
      -7.93696199e-06 -1.01482146e-05 3.13904388e-06 -9.43640487e-07
      -2.92659593e-06 -1.35032533e-05 -2.37077757e-06 1.26752684e-05
      1.22354950e-05 4.75268422e-07 1.27819771e-06 1.90101503e-06
      2.37807308e-05 3.25169162e-06 -1.71822649e-06 -1.08908853e-05
      -7.91821549e-06 6.88267482e-06 -3.81134123e-06 -2.97105544e-07
      -7.60570799e-07 3.67545476e-06 1.08260128e-05 -6.13031443e-06
      -1.69809960e-06 -7.43751457e-07 -2.59719172e-06 -1.25292272e-05
      3.31789342e-05 -1.71511856e-05 1.16192614e-05 1.32597925e-05
      -7.14912233e-07 -2.06604909e-05 -6.42201030e-07 6.49612730e-06
      1.11899617e-05 -2.52025075e-05 -1.29213204e-05 2.10619364e-05
      3.20833169e-05 -3.12128250e-05 -1.08453341e-05 9.27305246e-06
      2.23050338e-05 -1.32722334e-05 -1.74628130e-05 -7.81703784e-06
      6.38477331e-06 1.85459805e-06 -1.22118709e-05 3.56925943e-06
      -6.34006119e-06 -1.92973675e-06 -1.34297250e-06 -5.32809963e-07
      1.23450411e-06 1.02944323e-05 3.17765443e-06 -5.31471960e-06
      -1.57619270e-05 -7.74124146e-06 -7.50298750e-06 -5.32936883e-06
      2.35981315e-05 1.72404707e-05 2.01641137e-06 2.12940677e-06
      6.19900038e-06 1.34351885e-05 -7.90129707e-06 8.14584041e-07
      2.23114948e-05 1.09372741e-05 -8.00445014e-06 3.69692088e-06
      2.19298781e-05 1.88278386e-06 2.18594141e-06 1.46525372e-05
      -2.69078078e-06 -1.60900345e-05 -5.55183578e-06 2.25877775e-05
      -1.15954617e-06 -1.40943994e-05 -3.89351953e-06 1.16542160e-05
      1.07466503e-05 1.66649734e-05 1.28174370e-05 2.55790474e-05
      -4.73955561e-06 -2.22447125e-06 -9.43677969e-06 -1.17097288e-05
      -7.07536969e-07 1.03481725e-05 2.14180500e-06 -8.04910633e-06
      -1.18714188e-05 -5.42614180e-06 -9.48434808e-06 -2.29728412e-05
      3.25349210e-05 4.94175838e-05 1.09985458e-05 -1.26485193e-05
      3.15279212e-05 -1.63963068e-05 -5.59508635e-06 -8.19884372e-06
      -1.30347089e-05 -1.08060467e-05 3.76999401e-06 2.16713015e-05
      5.95813026e-06 -2.16853696e-05 9.42341671e-07 9.92249988e-06
      9.09470543e-07 5.09572328e-06 1.57267496e-05 1.32633904e-05
      1.77184829e-05 4.67757729e-07 -2.13253461e-05 -1.41269611e-05
      -1.56392307e-05 -3.65138544e-06 -5.95264964e-07 8.64541835e-06
      -3.38842801e-05 -2.07663506e-05 -1.37084407e-05 -3.89537818e-05
      6.98694384e-06 5.08633493e-05 3.41533632e-05 1.92665584e-06
      1.78680802e-05 -5.72787985e-06 -3.03158004e-06 -9.81199628e-06
      -8.59748434e-06 8.05402033e-06 3.49740039e-05 2.95648078e-05
      -1.90836340e-06 -3.27594194e-07 2.63743095e-06 -1.59935680e-05
      8.23750361e-06 -1.53075180e-05 2.29429975e-06 1.21853759e-06
      1.21253279e-05 1.22137208e-05 -3.73232688e-05 -6.70202871e-06
      6.40515600e-06 -2.03114050e-05 -1.46599159e-05 2.75001327e-07
      -1.01329615e-05 1.52981795e-06 -8.14730356e-06 -2.15769178e-05
      3.97759550e-06 -1.78230639e-05 -1.21869425e-05 -7.71137729e-06
      -1.79744729e-05 -2.32519069e-05 3.54915096e-06 7.79188940e-06
      9.01986277e-06 7.11415214e-06 1.55788015e-07 -5.36371681e-06
      -8.61808758e-07 -5.95771280e-06 1.75647438e-05 5.57427313e-07
      -1.36056233e-05 -1.60323043e-06 -5.87725663e-06 -8.43059752e-06
      -1.26865443e-05 -1.20698041e-05 1.97354143e-06 1.86921698e-05
      2.44968214e-06 -1.84671353e-05 -1.92539173e-05 2.07031212e-06
      9.78395019e-06 -8.80554217e-06 -1.30015287e-05 2.12874198e-07
      -1.40552970e-06 1.61353239e-06 2.35366656e-06 -9.13733311e-06
      8.47636966e-06 -1.18187052e-06 -1.67161270e-05 -1.12564958e-05
      -6.09970812e-06 -1.17246855e-05 -2.11653401e-06 -1.10085866e-05
      -4.86289491e-06 3.27722387e-06 -1.67269100e-05 -8.62533852e-06
      3.49986021e-06 8.97352948e-06 -5.03540969e-06 -5.11388976e-07
      -1.10840892e-06 5.81493987e-06 5.24150300e-06 6.52030212e-06
      -1.64927878e-05 -1.44238202e-05 1.23923965e-05 2.06571112e-05
      -7.06588389e-06 2.81378288e-06 1.30392409e-05 1.70915450e-06
      1.00934776e-05 1.38556334e-05 3.59898604e-06 -6.97263795e-06
      1.39533167e-05 1.34851243e-05 5.84919735e-06 -4.57378383e-06
      -8.20179503e-06 -1.98153175e-05 -8.78708033e-06 3.81521932e-06
      -2.67977634e-06 1.37878976e-06 -8.41654492e-06 2.61136080e-07
      7.36730226e-06 -5.73142643e-06 -1.39561580e-05 -7.96843233e-06
      3.86123565e-06 1.43912257e-05 3.12173106e-05 4.78107995e-06
      -2.90239823e-05 -4.83739996e-07 2.39470069e-06 -1.06709319e-06
      -1.88451577e-05 1.40668988e-06 9.19156173e-06 -4.87559737e-06
      3.65478314e-08 1.17507980e-05 3.77651736e-06 -6.69012138e-07
      5.51849780e-07 1.27809571e-05 5.90721493e-06 -2.77092499e-06
      -1.49201778e-05 -7.55350811e-06 3.60004219e-06 1.26920377e-05
      -1.49411226e-05 6.68965549e-06 1.32577561e-05 6.05831701e-06
      2.06512959e-05 -2.54233009e-06 -1.08787062e-05 -4.48211631e-06
      7.35773347e-06 2.85851947e-05 1.71676566e-05 -5.51004359e-06
      -1.69598934e-05 1.06693115e-05 1.38702562e-05 4.39097403e-06
      -8.33439390e-06 -1.21282142e-06 5.49572542e-06 1.95089638e-06
      -1.23433238e-05 -3.06369225e-06 4.21078266e-06 5.47301124e-06
      -7.36957963e-06 -6.43381691e-06 1.28920638e-05 -6.66656597e-09
      -2.93120752e-06 2.98872465e-06 4.75447359e-06 1.08970244e-06
      -1.32292016e-05 -6.99405291e-07 1.54287736e-05 2.15359905e-05
      1.20260693e-05 6.54927771e-06 7.41925987e-06 -9.92797482e-07
      2.82894973e-07 -3.00361876e-06 -6.55887015e-06 -3.96448831e-06
      1.31144816e-06 -1.34171823e-05 -4.77613821e-06 4.73629916e-06
      7.73232841e-06 -1.15067051e-05 -1.78558366e-05 1.16516776e-05
      4.30132495e-05 -1.33033200e-06 -3.32936565e-06 -4.08618416e-06
      4.51302585e-05 -9.79806464e-06 -2.16854387e-05 2.15076810e-07
      4.85674491e-06 -1.51379791e-05 -8.92485059e-06 2.19318299e-05
      3.66730342e-06 -1.35428372e-05 -1.06920670e-05 -9.52795290e-06
      1.23824248e-06 6.94029632e-06 3.84937493e-06 9.97898678e-06
      -1.59317338e-07 -9.40532664e-06 -1.50037636e-06 -5.71899909e-06
      -4.82829648e-07 -1.47301216e-05 -3.07125583e-06 9.50666163e-06
      -2.19270578e-06 -2.58526029e-06 -3.91996673e-06 -4.53791563e-06
      4.47711318e-05 1.14533650e-05 -6.99517705e-06 -1.20028562e-05
      3.58548059e-05 6.89736089e-06 -2.02620276e-06 -1.53284054e-06
      -5.89645470e-06 -2.10149901e-05 -7.93333857e-06 5.40160363e-06
      4.43759927e-06 -5.05059143e-06 -3.88933222e-06 4.01473244e-06
      -5.10146901e-06 -7.97166012e-06 -5.79868447e-06 -1.26329796e-05
      4.34639924e-06 1.15163621e-05 1.89496350e-05 4.76597825e-06
      -2.31679460e-05 -8.83126995e-06 -1.18126827e-05 1.64771354e-05
      -3.05289650e-05 -1.05941099e-05 -7.18301465e-07 -1.22886913e-05
      9.90177523e-06 3.26796071e-05 2.43424420e-05 6.81943038e-06
      1.86128273e-05 1.36200754e-06 2.76517744e-06 -7.85378870e-06
      -1.70942967e-05 -2.31022000e-07 2.50464873e-05 3.22198757e-05
      -1.21485436e-05 1.11206200e-05 1.02351869e-05 -9.29496400e-06
      7.11577854e-07 -8.59870852e-06 -1.23301388e-05 -9.58555484e-06
      7.80467474e-07 -2.76074093e-06 -1.00108655e-05 -2.55493978e-06
      -1.12507287e-05 -8.70796484e-08 -4.04385992e-06 1.30351928e-05
      -6.48021160e-06 -1.12271982e-05 -5.63097547e-06 -9.17771331e-07
      -1.80983225e-05 -3.31703959e-05 4.92049776e-06 6.57086684e-06
      -2.66381576e-05 -3.78262484e-05 -5.98811539e-07 -2.63262541e-06
      -7.63047046e-06 -3.39380745e-06 1.44516889e-05 5.55587121e-06
      -2.01828316e-05 -9.84643430e-06 9.04208537e-06 -1.23038462e-05
      -1.77633171e-06 9.44836120e-06 2.69483280e-06 -1.20640370e-05
      5.46894125e-06 1.12083842e-06 1.56952974e-05 -2.37400013e-06
      9.46101045e-06 -6.37262872e-07 1.18067182e-05 3.81174891e-06
      1.98354046e-05 8.08428740e-06 7.05708771e-06 1.21518747e-06
      9.70186102e-06 7.83391170e-06 1.03352322e-05 7.45670013e-06
      3.45550689e-05 1.07329015e-05 -6.22144807e-06 -1.20114112e-06
      1.77088862e-06 -6.03989122e-07 2.09455357e-06 -1.59762988e-06
      8.68655934e-06 1.16459012e-06 -4.93591369e-06 -3.06913330e-06
      2.00837185e-05 1.83839857e-05 4.55481995e-06 1.38186522e-06
      1.74862980e-05 4.75898730e-07 -7.25746031e-06 -9.24483174e-06
      4.40544227e-06 1.23653690e-05 1.62808592e-05 3.53012456e-06
      1.58093803e-06 -8.89446983e-06 -9.50284357e-06 -2.87358180e-05
      1.49204570e-05 2.19708709e-05 9.91951038e-06 2.79253732e-06
      8.34268030e-06 -1.55577964e-05 -7.04359400e-06 -9.73354054e-06
      -7.47631657e-06 -1.29357943e-06 3.37803453e-06 9.29575981e-06
      1.74839954e-06 4.24857035e-06 -4.81200013e-09 -7.07644722e-06
      3.86149168e-06 9.65581330e-06 9.54169536e-06 -7.87711178e-06
      2.01507755e-05 1.44125152e-05 9.27740984e-06 -1.16429264e-05
      -1.34920847e-05 6.52750600e-07 -1.17992113e-05 5.12729821e-06
      -1.79966610e-05 -3.51166386e-06 9.12824726e-06 -2.88368174e-05
      -1.45508193e-05 1.95866560e-05 2.20901456e-05 3.06914740e-06
      -3.11971144e-06 1.05790032e-05 1.28160616e-06 -1.38364230e-05
      -6.22968219e-06 9.59592967e-07 1.68155966e-05 1.18934367e-05
      -9.05381603e-06 1.41956089e-05 -2.04793992e-06 -2.31545873e-05
      -7.83175528e-06 -2.74548165e-06 1.59804131e-06 -4.31589478e-06
      -5.24208372e-06 -2.10300514e-05 -1.03121829e-05 -1.38426531e-05
      -1.25924345e-07 1.65514066e-05 5.15970839e-07 -4.04527736e-06
      -1.66897389e-05 8.77372167e-06 1.61357893e-05 -1.00410916e-05
      -2.68491167e-05 -1.98516045e-05 -9.38413996e-06 -1.86078364e-06
      -2.30006499e-05 2.80292406e-05 2.40606587e-05 -6.00597741e-06
      -5.41153486e-06 3.36618632e-06 -1.65935330e-06 -1.79196613e-05
      -4.78757056e-06 2.17564448e-05 2.10918224e-05 -2.07553476e-05
      -2.11995666e-05 -4.43419867e-06 -2.25212307e-06 -1.32581326e-05
      8.35811898e-06 7.89560181e-06 1.41826968e-06 -9.16995305e-06
      -3.34831020e-05 2.22366430e-06 1.78217942e-05 1.70943204e-05
      -1.47946566e-05 -1.88314675e-06 5.08078188e-07 -1.30023830e-06
      -1.23212394e-05 -2.63229163e-06 1.17604657e-06 1.67871656e-06
      -5.62857679e-07 -8.84995734e-06 5.40811607e-06 4.74671151e-06
      -3.01990349e-06 -1.72525815e-05 -7.70553470e-06 1.31808179e-06
      -5.63129970e-06 -7.23858511e-06 -2.60263619e-06 2.05331412e-06
      1.03378934e-05 1.28693209e-05 -7.18211231e-06 -5.50759205e-06
      1.20641844e-05 2.33390182e-07 -2.29578995e-06 -5.74360593e-06
      -2.44478979e-05 -6.74580679e-06 1.60164927e-05 6.79056211e-06
      -3.00502106e-05 -2.09414793e-06 1.39139338e-05 3.19132014e-05
      1.86671277e-05 -1.82600852e-05 1.58334296e-06 -6.82609607e-06
      2.07971134e-05 7.45567013e-06 1.37374127e-05 3.40907241e-06
      -1.76034409e-05 -1.17435029e-05 -5.95257006e-07 -4.09580025e-06
      -1.29621276e-05 -1.04841083e-05 3.78552699e-07 2.33066567e-05
      1.82382464e-05 -6.32566025e-06 5.25047540e-07 -6.03233002e-06
      1.60907111e-05 4.61439868e-06 1.54460959e-05 3.42168460e-06
      -1.54269981e-06 -1.79068938e-05 -9.89707587e-06 1.01467322e-05
      -3.68384758e-06 -1.61023218e-05 -2.77392223e-06 -9.20333434e-07
      4.37195558e-05 -2.73510727e-06 -9.24335563e-06 -2.85667829e-06
      2.46936524e-05 2.41953921e-06 -3.52219763e-06 -1.47129776e-05
      1.72184087e-07 -2.47784214e-06 -3.95693587e-06 -1.34457896e-05
      -1.26508439e-05 -1.01533888e-05 7.01506042e-06 7.59752311e-06
      1.53167039e-05 4.04251523e-06 5.45995772e-06 -7.02508942e-06
      7.65128243e-06 -9.85808583e-06 6.85065879e-06 -1.51243580e-06
      1.08428803e-05 -1.06444786e-05 -7.84156236e-06 1.67899543e-05
      6.42363557e-06 7.22737923e-07 2.09221143e-05 -4.43924682e-06
      4.15705945e-05 -1.88928989e-05 -1.37120915e-05 -8.01306385e-07
      3.42580752e-05 8.08163804e-06 8.74550005e-06 -4.28931071e-06
      9.99201256e-06 -6.46879835e-06 -1.21196681e-05 -1.15257599e-05
      -5.03062256e-06 3.05016215e-06 1.19744955e-05 -1.06016487e-05
      4.21415916e-06 3.78984464e-06 1.13138913e-05 -2.27125620e-05
      -4.20589049e-06 3.43294050e-06 2.33215269e-05 1.91019899e-05
      -1.21610601e-05 -7.14735097e-06 3.76922544e-05 -5.47532295e-07
      2.38805410e-06 -4.88413343e-06 4.15514614e-06 -3.25712972e-06
      -2.31862737e-06 1.22365764e-05 2.06050718e-05 6.33495029e-06
      1.34176735e-05 -8.63679270e-06 8.86912039e-06 -1.92020684e-06
      -3.54046574e-06 -1.17243444e-05 2.66671286e-05 3.39342296e-05
      3.90937930e-06 -6.96588950e-06 8.33691388e-07 -2.27220357e-06
      -2.91689912e-06 -1.39613594e-05 3.08955350e-05 3.12709999e-05
      3.99511446e-05 9.98299583e-06 -4.84671682e-06 -5.50810853e-07
      -2.05581709e-05 2.17663910e-06 3.38270220e-05 1.22870533e-05
      -6.54686164e-06 -6.77451317e-06 -7.14617363e-06 -1.82896565e-05
      7.08076141e-06 1.16643942e-05 1.73212284e-05 1.89824402e-06
      9.54031111e-06 -2.62935919e-05 -1.21307903e-05 -1.09477996e-05
      -1.42748650e-05 -6.45741011e-06 8.51177083e-06 1.92993721e-05
      2.75916989e-07 -1.24877006e-05 1.21992241e-06 9.88951160e-06
      -4.13830639e-06 -4.34602953e-06 8.34570710e-06 3.22088158e-06
      3.55437514e-05 1.35238997e-06 -1.91324079e-06 -1.16658057e-05
      -1.42985391e-05 -3.68545648e-06 4.02887991e-07 2.97862989e-05
      -1.02070126e-05 -1.13924343e-05 -5.67783991e-06 -2.08072834e-05
      -6.60385558e-06 1.35068312e-05 1.53181827e-05 3.86585089e-06
      4.03684589e-06 -2.58174578e-06 -6.13673137e-06 -1.53802011e-05
      -9.47558692e-06 7.07616437e-07 1.13308643e-05 6.06764115e-06
      -6.03463377e-06 -1.09428947e-05 -6.31459898e-06 1.21300354e-05
      2.26735174e-05 -9.55536598e-06 -5.19081141e-06 -2.69382372e-06
      1.42375238e-05 1.14629247e-05 7.31924729e-06 -7.13816098e-06
      -6.12123085e-06 -4.64645382e-06 1.02412685e-06 9.58661349e-06
      -2.14928468e-06 1.25811687e-06 3.83860788e-06 6.75187096e-07
      -1.39624001e-06 -2.67840242e-05 -1.21440662e-05 1.95335929e-06
      -4.17311730e-06 4.00393992e-06 3.04729201e-06 6.59414809e-06
      -6.15870476e-06 -7.51006064e-06 -5.52593747e-06 -6.36869527e-06
      -6.82949303e-06 -4.78650645e-06 9.68418317e-06 2.49646218e-05
      2.52171594e-06 -1.97452368e-06 -4.34812500e-06 -1.30111912e-05
      9.51179572e-06 -2.67300408e-07 5.95160145e-06 1.38931282e-05
      1.15851717e-05 3.62169544e-06 -1.63636942e-05 3.86957981e-05
      2.29622929e-05 4.79689470e-06 -1.25236893e-05 -6.30091472e-06
      -5.00498118e-07 -1.38272958e-06 -1.56471306e-05 2.30265305e-05
      7.02598345e-06 -6.33805575e-06 -3.20894196e-06 9.94048150e-06
      -1.01553360e-06 1.19647848e-06 4.70781060e-06 -5.22478103e-06
      3.20612298e-06 -1.79902236e-05 -4.60247702e-06 1.15026878e-05
      3.20465665e-06 2.24982632e-05 1.22215997e-05 9.42437600e-06
      2.36228625e-05 -3.25089127e-06 -1.23037671e-05 -1.28279671e-05
      -8.28227530e-06 6.17171509e-06 1.71650590e-05 4.29810971e-05
      9.10595645e-06 -3.73547527e-06 -1.47195542e-05 -1.84157343e-05
      -1.97374925e-06 2.03923319e-05 7.01248518e-06 4.37892550e-06
      7.19887703e-06 -1.79115832e-05 -1.01402429e-05 -3.02772810e-06
      -5.86137162e-07 2.85384886e-07 2.96741575e-07 5.74468231e-06
      5.83647898e-06 -1.09004432e-05 -1.20255309e-05 -4.35266384e-06
      8.86373527e-06 1.21239600e-05 1.88351933e-07 8.19221532e-06
      3.66445784e-05 -6.09945982e-06 -6.14739020e-06 -1.44553578e-05
      -1.10742385e-05 -1.48439847e-06 -1.87490559e-06 1.96067467e-05
      -1.53545207e-05 -1.75189198e-05 -3.97495523e-06 -1.49774205e-05
      4.18413435e-07 2.17001325e-05 1.51776003e-05 3.51337849e-06
      2.97910879e-06 -1.60867130e-05 -7.41553367e-06 -3.35398863e-06
      -1.14487357e-05 3.07773416e-06 1.92831430e-05 1.84499640e-05
      -3.06553738e-06 -2.77574736e-06 -1.15485036e-05 5.95135543e-06
      5.43110264e-06 -6.17127307e-06 -7.34072137e-06 -1.78499772e-06
      1.57552713e-05 3.34866104e-06 -4.25484963e-08 -2.62917501e-06
      -1.10390711e-05 -4.17223009e-06 -1.24481528e-06 5.67104416e-06
      -2.36024925e-06 -1.88729555e-05 3.70349403e-06 5.78419576e-06
      -1.70215881e-05 -2.17105608e-05 3.95939253e-07 -8.88184729e-07
      -1.52503808e-05 -4.05991450e-05 -4.66090660e-06 4.62116350e-06
      -8.64711910e-06 -6.70041754e-06 5.18648403e-06 6.55382792e-06
      -1.65799429e-05 -9.17509897e-06 -1.61616811e-06 1.35055943e-05
      6.79155983e-06 -1.97130043e-06 -3.31819342e-06 -1.18655987e-06
      4.73699720e-06 1.06251100e-05 2.02550132e-06 -3.68952647e-06
      -2.74138001e-05 -1.92912175e-05 1.52051166e-06 1.13358374e-05
      -2.44733983e-05 -1.86082980e-05 -2.16314857e-06 1.28339852e-05
      -1.35094051e-05 8.11277278e-06 1.08506320e-05 3.89031811e-06
      -3.22817541e-05 -4.29188049e-06 5.80945516e-06 2.78639845e-06
      -8.08865116e-06 1.59604519e-06 1.90035644e-05 4.30400723e-06
      -1.11302518e-06 3.47493324e-06 9.71670715e-07 -1.66115410e-06
      4.95672884e-06 -2.42820579e-06 -5.62565674e-06 7.45393572e-06
      1.86837733e-05 4.49075969e-06 2.45365709e-06 -1.18980472e-06
      -1.96935471e-05 -7.84895656e-06 6.68038547e-06 3.71677561e-06
      -1.80298484e-05 2.47660205e-06 1.16670772e-05 3.50687151e-05
      -7.61656452e-07 -1.93024971e-05 -2.71362092e-06 -2.49441382e-06
      -9.49540208e-06 1.74862762e-05 1.37304150e-05 8.66282517e-06
      -1.09148709e-06 -3.22322694e-06 7.17988087e-07 -8.53626625e-06
      6.99325165e-06 -1.32407956e-06 -5.27616476e-06 -3.58774173e-06
      1.63226935e-06 4.22679705e-06 -6.52811605e-06 1.55780845e-06
      3.46256857e-05 4.47989714e-06 -2.96147641e-06 -9.56693657e-06
      4.50393873e-06 2.11591964e-06 -2.19816258e-07 -1.65839060e-06
      6.22703237e-06 1.27057888e-06 1.11078712e-07 7.61306111e-08
      1.49831794e-05 -2.35123061e-05 -1.81507767e-05 -1.52869834e-05
      8.48507534e-06 2.97461293e-06 4.28508929e-06 2.20964739e-06
      1.04007395e-05 -1.44106889e-06 -1.00367397e-05 -4.52724780e-05
      1.57924842e-05 6.19801995e-06 7.32530452e-06 -3.77898436e-06
      4.91451783e-06 -5.02688863e-06 -2.96385679e-06 -7.88729358e-06
      3.22776104e-05 9.01009207e-06 1.20959348e-05 1.01575752e-05
      6.92376261e-06 1.47882417e-06 -4.63197694e-06 1.23180577e-08
      6.06323101e-06 4.04326875e-06 7.30315060e-06 1.37419720e-05
      4.42221353e-05 -1.20055456e-05 -6.31498369e-06 -1.65387119e-05
      3.56705641e-05 3.22621281e-06 6.89474291e-06 1.11882955e-05
      1.25208489e-05 8.25813029e-10 -5.10450127e-06 -2.09275076e-05
      4.26977795e-06 7.23826406e-06 2.86347804e-05 3.64626649e-05
      1.45717183e-06 -3.38049654e-06 2.00091404e-06 -4.17922502e-06
      -3.79764629e-07 2.17549095e-05 2.27555915e-06 -4.66868596e-06
      -5.67041843e-06 -8.00036651e-06 5.73624538e-06 1.30729904e-05
      1.39860949e-05 -4.07547805e-06 -2.54466704e-06 -1.83382563e-05
      -1.99873539e-05 -2.31217109e-05 4.09076893e-06 1.04201199e-05
      3.04961105e-07 -1.72935543e-05 4.81285815e-06 -1.37473455e-06
      -6.40718463e-06 -3.04219452e-06 -8.39620134e-06 -2.97609167e-05
      -1.08562654e-06 -1.58963144e-06 2.06451546e-06 7.36029324e-06
      1.37008383e-05 1.84789606e-05 -1.48157415e-05 -3.04896294e-05
      9.25523091e-06 -2.12848386e-06 -1.26638452e-05 -7.18740284e-06
      -1.15926059e-05 5.13024179e-06 3.13580458e-05 1.78546434e-05
      -1.61661119e-05 -7.99734789e-06 -6.09075778e-06 2.86435784e-06
      1.74240758e-05 5.54695987e-07 7.67388883e-06 4.21071991e-06
      1.97741265e-05 -1.27843623e-05 1.24681583e-05 1.56215810e-05
      -2.00768645e-05 -8.09159974e-06 -3.31730149e-07 -8.62917477e-06
      -2.20018023e-06 -1.33253789e-05 2.74832217e-07 8.63118657e-06
      1.58524326e-05 1.21109952e-05 2.15891691e-06 -6.53593315e-06
      1.11026357e-05 2.66755924e-05 2.18283185e-05 7.19701029e-06
      -2.02907195e-05 -1.47896526e-05 -2.24660948e-06 2.53501958e-06
      -1.71872307e-05 -5.55987845e-06 -3.58849866e-06 -1.14116910e-05
      3.16046084e-07 2.70662931e-05 3.49466950e-06 -1.94701124e-06
      -4.94138385e-06 5.98986674e-08 6.69720885e-06 -2.16744615e-06
      -9.16054069e-06 1.14269542e-05 5.76844468e-06 1.87341573e-06
      -1.03808634e-05 7.71482917e-07 7.63403023e-06 1.15927151e-05
      1.46256552e-05 7.51782807e-07 -2.00408363e-06 1.98102248e-06
      7.10173435e-06 2.14559695e-05 2.75093626e-05 5.04751006e-06
      -1.69562009e-05 -1.39921340e-05 2.87141052e-06 1.59613119e-05
      -3.18094203e-06 2.72818415e-05 1.42301551e-05 2.10469875e-06
      -7.41420445e-06 -3.06801121e-05 -1.30108938e-05 -8.26795599e-07
      -6.16954458e-06 -4.41844622e-06 1.09757029e-05 1.24857288e-05
      1.13030558e-06 1.36110839e-05 -1.21806261e-06 -7.53985250e-06
      -5.16204500e-06 1.99361311e-05 2.23031952e-06 2.04780517e-05
      5.73645775e-06 1.24758244e-05 8.92341177e-07 -8.60062482e-06
      8.32987644e-06 -3.67556208e-06 3.80956112e-06 4.43946647e-06
      2.64404662e-07 -7.39289590e-06 -6.59585658e-06 7.08054995e-06
      -9.65699292e-06 -1.88562649e-06 1.27581401e-07 -1.21340508e-05
      -3.64043481e-05 -3.99396868e-06 1.45679423e-05 5.44097247e-06
      -2.34455692e-05 1.55234579e-06 7.06360993e-07 -1.49256148e-05
      -1.05930403e-05 -3.94300196e-06 2.02166357e-05 1.32381319e-06
      -2.62248454e-06 6.71089811e-06 7.79317179e-06 6.17900560e-06
      -3.41429563e-06 -5.17450690e-06 1.88989034e-05 1.03444791e-05
      9.24281176e-06 -7.79649872e-06 -5.41545069e-06 -2.09505015e-06
      -2.43165232e-06 3.37905044e-06 1.28831762e-05 6.05866944e-06
      6.13585371e-07 -3.61606567e-07 2.08579445e-06 -1.09313614e-05
      -2.20940310e-05 -1.36213121e-05 6.41552060e-06 5.88042394e-06
      -3.05043995e-05 -2.36842675e-06 2.09056520e-06 -8.89047169e-06
      -6.61013610e-06 8.83217672e-06 4.89452577e-06 -8.28672171e-07
      -6.26506926e-06 7.41151734e-06 3.67742047e-07 2.59097419e-06
      -4.02824298e-07 -6.36028972e-06 5.95224537e-06 6.29917804e-06
      1.69397099e-05 1.04352021e-05 7.27011775e-06 8.07562446e-06
      2.01297153e-05 -7.99614645e-06 -4.02486967e-06 5.03154888e-06
      1.51081722e-05 4.54070869e-06 1.65510448e-06 8.17586988e-06
      3.24304915e-06 -1.85340705e-05 -1.82660715e-05 -4.77820151e-07
      -6.92946878e-06 3.45632679e-06 5.10760742e-07 3.80592064e-06
      -3.75499894e-06 6.80541052e-06 -1.33775557e-05 -2.21437822e-05
      -2.66964048e-06 5.74448495e-06 6.26899600e-06 1.52691209e-05
      2.85642750e-06 1.83035615e-06 -4.58048044e-06 -5.49876904e-06
      1.18102535e-05 2.00706108e-05 1.39984040e-05 1.23636464e-05
      1.17645204e-05 6.45090086e-06 6.22231801e-06 6.60776732e-06
      2.75020448e-05 8.91713444e-06 1.38032137e-05 8.12594863e-06
      1.68862080e-05 3.62137257e-06 -4.18233321e-06 7.54015855e-06
      2.71188146e-05 -6.10747702e-06 -2.20037441e-06 5.45722605e-06
      1.76762512e-06 8.55173039e-06 -5.83428164e-06 9.26325356e-06
      9.84705935e-07 -1.10729916e-05 -7.95861342e-06 1.12356056e-05
      5.92900460e-06 2.13256117e-05 1.08972536e-05 -1.53329108e-06
      2.98628925e-06 1.98005387e-06 -5.89257843e-06 -3.36597714e-06
      -3.21212519e-06 -6.95397739e-06 -1.25028773e-05 -2.10589260e-05
      -1.31590850e-05 -8.52743506e-06 -8.01025453e-06 -1.12866546e-05
      -2.49224649e-05 -2.28354347e-05 1.02463297e-07 4.04183493e-06
      -4.90777747e-05 -2.17072502e-05 -3.83713086e-06 -9.32098033e-07
      -7.29048168e-07 -6.31192279e-06 9.68750919e-06 -6.72097667e-06
      -1.83217671e-05 -4.22094490e-06 -1.04937753e-05 -4.26373873e-07
      7.66070298e-06 1.81372870e-05 6.65086645e-06 -4.97814017e-06
      -3.60036233e-06 -1.31776251e-05 3.07096821e-06 8.46551211e-06
      -1.71189404e-05 -7.59585691e-06 6.93222046e-06 -1.76808317e-06
      -2.20505444e-05 1.92811899e-06 3.09685893e-05 5.26625518e-05
      4.41367092e-06 -2.39037436e-05 -7.85634529e-06 -1.43430689e-05
      3.82651592e-07 3.86630636e-05 3.39849503e-05 8.20569221e-06
      -9.62984177e-06 -2.65906456e-05 -9.66447533e-06 -5.24045936e-06
      -1.71323427e-05 1.03697994e-06 -1.69292832e-06 8.66525534e-06
      1.61553871e-05 1.06520320e-05 -3.87102864e-06 -4.79418577e-06
      -2.07497487e-06 -8.98364124e-06 2.48644956e-05 1.25469733e-05
      -1.73433352e-06 -4.39064388e-06 3.27256339e-06 2.31486570e-06
      1.96655674e-06 -8.90169031e-06 -3.37540610e-06 3.47229834e-05
      1.86730595e-05 -2.88932642e-05 -1.14380173e-05 -9.67771666e-06
      1.24890757e-05 2.12700761e-05 -1.48795307e-05 -5.96372365e-06
      -2.56563726e-06 -1.12247553e-05 -9.88628199e-06 -2.66088900e-05
      -9.24521100e-06 7.82200004e-06 -1.31909046e-05 4.29116017e-06
      2.17462730e-05 8.18446836e-07 4.11729587e-07 -9.10162453e-06
      -1.95401435e-06 8.86108319e-06 1.97243553e-05 6.96722373e-06
      -4.65193898e-06 5.69701751e-06 -3.04004260e-07 6.21311665e-06
      1.09376524e-05 -1.48618519e-05 -9.71743066e-06 2.23009702e-05
      3.31326337e-05 7.02356419e-06 -1.47556329e-05 -4.14704436e-06
      4.53423017e-05 3.57929239e-05 -1.65769852e-05 -5.64146785e-06
      4.85325700e-06 7.54342682e-06 -6.85296573e-06 -1.65941328e-05
      -6.98697841e-06 2.28458393e-05 1.40572547e-05 2.84540583e-05
      1.80515999e-05 6.52053313e-06 1.25555027e-06 -1.95779648e-05
      -9.99278109e-06 -6.89333035e-08 6.96722566e-07 -1.03521679e-05
      -4.61379932e-06 -2.11083716e-06 -2.42612464e-06 -8.99219867e-06
      -6.03778653e-06 -7.00050805e-06 -1.47124101e-05 -5.09455958e-06
      1.76475569e-05 -8.75318892e-06 -9.66184780e-06 2.11227666e-06
      1.42180570e-05 -9.01832118e-06 -8.42518966e-06 2.76957191e-09
      7.60931471e-06 -1.75092864e-05 7.65051198e-07 1.54199679e-05
      -1.35527512e-06 -1.86844663e-05 -1.97288791e-05 4.77600406e-06
      1.22272622e-05 -8.45272370e-06 1.62282813e-05 1.09830808e-05
      1.94356471e-05 1.14633085e-05 -8.92411936e-06 -1.32256891e-05
      -7.00079772e-06 -2.78996094e-06 -1.30853523e-05 -3.65467786e-05
      -6.18892727e-06 -5.46916954e-06 -9.42803695e-07 6.37195581e-06
      1.03353896e-05 -1.74084398e-05 -5.08547782e-06 -4.79587516e-06
      1.02769525e-06 1.22944475e-05 4.39483620e-06 4.69357519e-06
      5.45824196e-06 -9.97104507e-06 -1.01316145e-05 -7.40688620e-06
      8.25684219e-06 -8.80687992e-07 -4.11147494e-06 3.87895807e-06
      5.53222253e-06 -1.58973598e-05 -2.40364425e-05 -2.72114363e-07
      2.44582952e-05 -8.47267893e-06 6.55078247e-06 -1.89323248e-06
      -8.11868995e-06 -6.51197706e-06 -7.97864595e-06 8.86496946e-06
      2.58161185e-06 -7.21118568e-06 1.77729851e-06 1.72679374e-05
      2.61743171e-05 -3.25748579e-06 -9.88566953e-08 -2.58755722e-06
      5.58925831e-06 -1.49320147e-06 -2.11490965e-06 2.50769972e-06
      3.97926851e-06 -5.17988212e-07 1.92545471e-07 -5.02721605e-06
      9.30424085e-06 2.45458892e-07 -7.68267910e-06 2.55582023e-07
      3.50466939e-06 -6.46352464e-06 -6.52265680e-06 -2.86727072e-06
      1.82148451e-05 -9.40868358e-06 -6.55945485e-07 6.79365621e-06
      1.00560901e-05 -6.13723728e-07 2.50037010e-06 5.89375441e-06
      1.42032295e-05 -1.39214044e-05 -2.04429739e-07 1.88626727e-05
      1.16771289e-05 -2.26386856e-05 -4.24645395e-06 -3.10883320e-06
      1.18899370e-05 -1.59969513e-05 -1.26135183e-06 3.80980305e-06
      4.58587829e-06 -1.47959054e-06 3.04506699e-07 -1.05350546e-05
      3.78069467e-06 -9.53128438e-06 3.12953534e-06 4.56437147e-06
      4.24721929e-06 -1.67699432e-06 -8.36280742e-06 -1.67766086e-06
      1.19686820e-05 5.68618043e-06 4.31250010e-06 -1.25266388e-06
      1.53668079e-05 -5.02224748e-06 -3.26301342e-05 -1.60195304e-05
      7.43556848e-06 4.41325892e-06 9.37060304e-06 -1.21404137e-05
      2.65498093e-05 4.94151709e-06 -8.94026562e-06 -1.50356000e-05
      1.67645449e-05 1.10733963e-05 -2.10588951e-06 -2.06797831e-05
      -1.27141266e-05 -2.01373532e-05 -6.72082479e-06 -1.04722967e-05
      -1.30173612e-05 -7.47631748e-06 -6.98324493e-06 -1.13764154e-05
      1.02988888e-05 -2.07100399e-07 -6.20838409e-06 -4.95718223e-06
      1.87210626e-05 1.11255085e-05 1.64955668e-06 1.30713829e-06
      1.63452285e-06 -3.02028911e-06 -9.87020940e-06 8.77866455e-07
      -7.43992871e-07 6.15810620e-08 5.38797349e-06 -2.62901926e-06
      1.59515439e-05 1.69020313e-05 -8.65942184e-06 -7.02618900e-06
      6.57405508e-06 9.42982297e-06 5.24666939e-06 -6.88776845e-06
      -1.83728019e-07 -2.11883598e-05 -1.92067710e-05 3.21661287e-06
      -4.93347216e-06 -3.77799353e-07 3.53546602e-06 1.25660954e-05
      7.09938195e-06 -3.61693747e-05 -2.91078468e-05 1.14174509e-06
      1.96861420e-05 5.29168619e-06 1.78284881e-05 6.62661978e-06
      -3.78316031e-06 -4.69202769e-06 1.75130754e-06 5.72931231e-06
      7.57304690e-07 -4.84514567e-06 2.37776135e-06 8.92704611e-06
      -2.18962009e-06 -9.26999564e-06 8.73662339e-06 -1.40260329e-06
      -9.42707811e-06 2.63704374e-06 2.60165308e-07 -4.46185049e-06
      6.53233485e-08 -6.04509432e-06 7.52323967e-06 -6.70370184e-07
      -1.76377289e-05 9.32024022e-07 4.13300631e-06 7.36849370e-06
      1.95248813e-05 -1.50444284e-05 -2.80727068e-06 -2.12893337e-06
      7.28413124e-06 -5.34286710e-06 4.44388061e-05 1.68767056e-05
      -5.81801987e-06 -4.17664205e-06 7.48406183e-06 1.56177721e-05
      1.76128287e-05 6.79732284e-06 1.38397236e-05 2.60686720e-05
      1.56993392e-05 -2.58445652e-05 -2.25139866e-05 -5.16834098e-06
      1.65953606e-05 1.33816166e-05 1.07230744e-05 6.65953439e-06
      -1.88084698e-06 -5.45736248e-06 -1.91720446e-05 -2.27383571e-05
      -7.38962308e-06 -3.95555560e-07 1.34266020e-05 -7.59928582e-08
      3.29740215e-06 9.21534411e-06 1.57629911e-05 -3.80388269e-06
      -6.20906121e-06 1.98604448e-06 2.78101516e-06 -2.05069773e-06
      1.85222307e-05 -2.65253880e-06 -2.22279905e-05 -8.36276104e-06
      5.01439763e-06 9.43570194e-06 -1.30223839e-06 6.69880183e-06
      2.23820516e-05 2.58199702e-06 -1.01609357e-05 -3.67172220e-06
      6.53291818e-06 1.77322963e-05 8.54463087e-06 4.69564429e-06
      -9.50739923e-06 -7.63872595e-06 -1.10294168e-05 -7.93932304e-06
      -1.72379521e-06 3.40996348e-06 4.63473179e-06 5.13774285e-06
      6.03048738e-06 8.05725165e-07 -5.08836547e-06 1.17044183e-05
      -7.64787274e-06 4.32918523e-06 -2.00740305e-06 6.87087504e-06
      1.00311290e-05 -1.15717667e-05 -3.25444284e-06 -8.48430773e-06
      1.51965048e-06 -7.42883003e-07 -8.16027932e-06 -6.89685430e-06
      1.85593053e-05 -2.72008879e-06 4.02436444e-06 1.17512798e-06
      -5.85594489e-06 -1.25301642e-06 -1.80900599e-06 -2.09294694e-06
      2.20981701e-06 -4.24175641e-06 -6.90713387e-06 2.84475709e-06
      4.63029801e-06 9.42271799e-06 8.39278869e-07 -1.98502294e-05
      -1.30141061e-05 7.26109874e-06 -7.64166452e-06 1.26328825e-06
      1.64390749e-05 1.97636036e-05 7.73325064e-06 1.83005977e-06
      1.21731946e-05 -1.03544035e-05 -1.04981373e-05 3.48483104e-06
      -1.59227511e-06 5.61845070e-07 1.18337778e-06 -2.86125987e-06
      2.62426984e-05 -1.97673717e-06 1.81122277e-06 2.16725743e-06
      -2.85023179e-06 2.80266750e-06 6.81225902e-06 4.03139711e-06
      -1.48622519e-06 -2.13348676e-06 2.25586564e-06 -6.94093478e-06
      -1.14259619e-05 1.86026173e-05 2.48530832e-05 -3.94830749e-06
      -1.11080171e-05 -2.17220986e-06 -3.82560393e-06 -5.48391972e-06
      2.26598786e-05 2.14603619e-06 5.75495415e-06 7.57779662e-06
      3.00016472e-06 5.66525114e-06 -4.75194338e-06 2.26138468e-06
      5.91706612e-06 9.39991060e-06 1.17403283e-06 8.57291343e-06
      -8.07733522e-06 -1.76712310e-05 1.30476326e-06 1.21796211e-06
      -9.64014089e-06 -8.97878544e-06 2.54119936e-06 -3.69238751e-06
      -9.61098749e-07 1.67467297e-05 3.06867514e-06 -3.61137199e-06
      -5.68240148e-06 -1.81914493e-06 1.39711865e-05 -2.78940956e-06
      -2.58259490e-07 7.70327279e-06 7.18850652e-06 7.04600779e-06
      -9.04751596e-06 2.71432214e-06 1.24751950e-05 -2.58382306e-06
      2.14454503e-05 8.05555192e-06 4.19433718e-06 -2.04979551e-05
      1.60321397e-05 6.66650340e-06 -9.07976869e-07 1.59562899e-06
      2.53545077e-05 7.11784423e-06 -5.12533916e-07 -2.28174554e-06
      3.04790065e-05 -1.20717896e-05 1.03100583e-05 1.06964080e-05
      4.27299847e-06 -1.54443910e-07 1.35660193e-05 1.27023577e-05
      1.32807045e-05 -1.28507108e-05 1.15450630e-05 1.90088067e-05
      2.57230295e-05 1.50262204e-05 2.26526099e-05 1.61601711e-05
      -1.89488073e-05 -1.18957569e-05 -7.39416737e-06 -6.09228027e-06
      4.45844398e-06 1.66074351e-05 3.87258260e-05 -8.29934106e-06
      1.01509113e-05 -1.26281202e-05 -2.41275684e-05 -2.05718297e-05
      5.66455719e-06 2.24273572e-05 1.14725117e-05 7.53045879e-06
      1.25236120e-05 -3.97587792e-05 -1.39320582e-05 6.46949456e-06
      -4.87433272e-06 -3.99112707e-07 8.92844582e-06 2.25036401e-05
      1.61430435e-05 -1.68658335e-05 -1.60518846e-06 1.58614930e-05
      2.38266894e-05 2.77263553e-05 1.28086258e-05 1.07883698e-05
      -1.07865544e-05 -2.34135805e-05 -6.67531140e-06 -8.53261497e-07
      -7.86428814e-07 7.95955657e-06 3.15036618e-06 -1.13679625e-05
      -1.30707749e-05 -8.25342704e-06 -9.09826326e-07 -1.56577680e-05
      -8.09198173e-06 2.76389474e-05 2.10807393e-05 1.61270964e-06
      -7.64001652e-06 -5.46407455e-06 1.26581313e-06 -3.86835654e-06
      -7.72323710e-06 8.63415971e-06 2.38497232e-05 1.82317472e-05
      -3.76381968e-06 -1.61885829e-08 -1.12226815e-06 -1.05868839e-05
      2.07797575e-06 9.91520574e-06 -2.13540488e-06 7.44152749e-06
      -1.10690544e-05 -2.78733423e-05 -1.57142651e-07 -1.43624834e-06
      -9.29284761e-06 -9.83992959e-06 2.23971711e-06 2.01928202e-07
      -1.29023319e-05 -3.16045807e-05 -5.09710753e-06 -2.01219655e-06
      -1.32904352e-05 -1.82390231e-05 -8.96966685e-06 -3.50645337e-06
      -2.06239238e-05 -1.01958776e-05 -1.97031877e-05 -9.84005146e-06
      -2.43838167e-06 -1.19913111e-05 -2.02161141e-06 -1.91679260e-06
      -1.35611699e-05 -1.20985678e-05 -9.30753743e-07 -1.52963639e-05
      -3.77003204e-07 2.62591266e-06 7.43793817e-06 7.23262656e-06
      -3.14836871e-05 -1.08144050e-05 1.38234291e-05 1.87612500e-06
      1.11951185e-05 9.92839159e-06 2.46398372e-06 -1.26876866e-05
      4.98580221e-06 -1.03785896e-05 -9.19402100e-06 -1.90727314e-05
      2.27539622e-05 1.09577013e-05 2.15876821e-06 1.09931962e-05
      2.78509251e-05 -1.14318082e-05 -5.75232752e-06 -1.31485581e-06
      -5.01948443e-06 -2.47694225e-05 9.59154204e-06 3.26202780e-06
      -2.81997336e-06 -1.88254626e-06 3.14363717e-07 9.66408697e-06
      2.24659198e-05 3.43573834e-06 1.41672908e-05 -1.90133460e-06
      -1.99457531e-06 -1.79902763e-05 -1.08858403e-05 -7.92257651e-06
      1.01955702e-05 4.57606848e-06 2.58893397e-06 -7.37626533e-06
      -4.18194713e-06 -7.71490704e-06 -6.35473680e-06 -1.03924694e-05
      2.94869205e-05 2.05321121e-05 3.58419288e-06 -2.52261742e-07
      1.39110061e-05 -1.21516696e-05 4.37051312e-07 5.36499670e-07
      -6.30753220e-06 -6.15290583e-06 1.60895206e-06 3.66716972e-06
      4.33754565e-07 -2.86628756e-06 -1.92651055e-06 3.91875528e-06
      1.37038760e-05 1.11392064e-05 4.68834878e-06 1.17285133e-07
      -1.21093962e-07 -2.16009612e-05 -3.77715764e-06 3.23449331e-06
      5.34105880e-07 3.66624226e-06 -5.69555004e-06 5.01622310e-07
      -1.56074657e-05 -1.46206048e-05 -9.38543053e-06 -1.14575960e-05
      1.43572588e-05 3.77910037e-05 1.86069537e-05 4.28566273e-06
      2.56478415e-06 -2.59277908e-06 -2.03012223e-06 -4.76198556e-06
      -3.36572907e-06 8.67234849e-06 1.70608691e-05 2.15591335e-05
      -5.37804499e-06 -4.37858444e-06 5.61021852e-06 7.09247433e-06
      8.71686643e-06 -3.94575636e-06 3.57404332e-07 1.64608593e-06
      -6.72618717e-06 1.46301875e-06 -1.76283334e-06 6.72038368e-06
      -9.34946684e-07 -1.86815862e-06 -8.36242816e-06 -3.70061230e-06
      2.11276438e-06 -1.31191146e-05 -1.90768628e-06 1.21545218e-05
      -5.08269568e-06 -1.31276502e-05 -1.04938999e-05 1.49511243e-06
      -1.04750561e-05 -1.95272987e-05 -1.29010368e-05 3.90502555e-06
      5.85057114e-06 -7.62024092e-06 -6.59662965e-06 1.20285142e-06
      -7.77257526e-07 -1.96519231e-05 -1.59800747e-05 4.81690222e-06
      9.49845253e-06 -5.63587328e-08 2.34382384e-07 2.53932149e-06
      -1.44422347e-06 -9.62917511e-06 -4.16843341e-06 -2.49547412e-07
      -3.62123501e-06 2.54149472e-06 5.35701872e-07 3.54765734e-06
      -6.48507239e-06 3.87927639e-06 2.27123792e-06 -3.91002914e-06
      -2.28203189e-05 4.11594829e-06 3.75756508e-06 -2.01887929e-06
      -2.48595825e-05 3.18571074e-05 7.62116542e-06 5.31463684e-06
      -2.49593995e-05 -1.77939692e-05 3.78875279e-06 -1.76000140e-05
      -1.34372312e-05 7.28768555e-06 -8.74893715e-07 1.18971693e-05
      8.24304698e-06 -1.51487393e-05 5.00278816e-07 5.00258466e-06
      -8.72577857e-06 -1.93472060e-05 -1.04983665e-05 -2.99867736e-07
      2.19397793e-06 9.14434713e-06 4.86651857e-07 -6.10322104e-07
      -1.85925546e-05 -6.02712407e-06 2.97024690e-06 4.91914989e-06
      3.70211615e-06 5.83810788e-06 6.98639087e-06 6.22862899e-07
      -7.39885218e-06 2.33508908e-05 9.51298443e-06 2.43914360e-06
      -2.38384655e-05 -5.75155900e-06 8.51591540e-06 -2.60488628e-06
      -1.72363543e-05 9.77967284e-06 1.92876996e-06 5.67263623e-06
      4.26516908e-06 -9.45811189e-06 7.63157095e-06 1.03050170e-05
      2.04419189e-06 1.79810959e-05 6.28673479e-06 2.67410064e-06
      1.35444370e-05 -5.97461985e-06 -1.51084796e-05 -3.04286061e-07
      2.26897578e-06 -1.16117717e-05 -4.89651848e-06 1.74570835e-06
      1.74792331e-05 -9.38973608e-06 -1.38468167e-05 -2.98172813e-06
      2.81747953e-06 6.77410071e-06 -2.18615310e-06 -7.84844633e-06
      1.15824650e-06 1.22858992e-05 -1.17718400e-05 -3.05442773e-05
      -1.11928384e-05 1.29906175e-05 1.14078239e-05 7.09756296e-06
      8.69219548e-06 6.10641655e-06 -1.91702767e-07 -6.85798796e-06
      6.16736361e-06 2.67956639e-05 2.42970655e-05 7.35141111e-06
      1.09991333e-05 -4.69138058e-07 3.68534324e-06 -8.05245975e-07
      1.22074471e-05 1.67477829e-05 1.92646585e-05 1.38246214e-05
      2.65008657e-05 -2.11847346e-05 -1.64152534e-05 -2.38696498e-06
      2.63538968e-05 1.61929383e-05 1.05178578e-05 7.97560733e-06
      1.89218663e-05 1.24139569e-06 -1.75713521e-05 -1.87013557e-05
      4.37048902e-06 1.78231130e-05 1.71530573e-05 2.58559376e-05
      1.36219323e-05 1.08969462e-05 2.10600001e-06 -2.81365556e-06
      -2.23265488e-06 1.59551504e-07 -5.21352104e-06 -8.72856799e-06
      2.96536246e-06 2.01570060e-06 -3.54243239e-05 -9.36995184e-06
      -6.08209973e-07 -9.93417189e-07 -7.53260974e-06 -1.85894769e-05
      -1.13504275e-05 -1.66217542e-05 -1.83861648e-05 4.03248464e-07
      -1.97768077e-05 -9.85658335e-06 -2.20433662e-06 -1.43732962e-06
      -7.55129213e-06 -5.43310034e-06 2.48927518e-06 -2.51071251e-05
      -9.91085835e-06 -1.23862073e-05 -9.46654473e-06 -1.16368206e-07
      9.16020895e-08 2.42998103e-05 -2.82906569e-07 -2.74712911e-05
      1.06703919e-05 6.62799766e-06 1.04550090e-05 7.09811729e-06
      -2.39899837e-05 -9.62721458e-08 -1.43162397e-05 -6.34557910e-06
      -1.62024880e-05 1.14101531e-05 2.11007591e-05 2.50952744e-05
      -1.51087934e-05 -1.05302443e-05 -9.10562721e-06 -1.02629956e-05
      9.98737141e-06 3.21041662e-05 2.06843160e-05 6.33936679e-06
      -1.91041836e-05 -1.98216640e-05 -7.57608314e-06 -1.01650103e-05
      -2.29184366e-06 -9.62830563e-06 -1.33641070e-05 2.92712934e-06
      7.13258851e-06 3.83086945e-06 -2.66250004e-06 -3.34466813e-06
      1.64012672e-05 3.27584094e-05 2.71134104e-05 2.24778046e-06
      -1.10162073e-05 -2.61886589e-06 -3.50072628e-06 5.72611179e-06
      -8.01392434e-06 6.20003561e-07 4.02723390e-06 1.94329623e-05
      1.78042046e-05 -5.95924894e-06 -3.29968907e-06 2.39178377e-07
      1.58426337e-05 5.70463408e-06 1.37623658e-06 -6.93962056e-06
      -1.92351035e-05 -6.37283938e-06 -8.45335580e-06 -1.13479018e-05
      -2.42661076e-06 5.09487734e-07 1.01334563e-05 2.12752511e-05
      6.48280593e-06 -9.97167172e-06 -7.57422367e-06 -8.30376666e-06
      5.71867622e-06 3.65325068e-05 6.72137594e-06 -1.33539334e-05
      1.88951390e-06 2.53246180e-05 1.39845533e-05 1.23151476e-05
      4.01089437e-06 2.28410154e-05 1.03099601e-05 2.82490009e-06
      1.57176510e-05 -5.31297701e-06 -3.92052789e-06 8.20712046e-07
      2.41910529e-05 -2.71789827e-06 -2.99861085e-06 6.88788577e-06
      -7.75400349e-06 -2.42335818e-06 -6.57086412e-06 9.37413347e-07
      -1.14820677e-05 -3.19284572e-06 9.29972430e-06 3.73666953e-05
      -5.97045346e-06 5.45341607e-07 3.01236355e-06 1.33692447e-06
      5.12075621e-06 -1.03874054e-05 2.52109771e-06 -4.32719344e-06
      2.04960706e-05 1.09289920e-06 -6.26806604e-06 2.11716961e-05
      2.25814292e-05 -9.65580602e-06 -2.24910582e-05 -5.02450075e-06
      3.66777349e-05 2.63457041e-05 1.58820258e-05 9.44364103e-07
      3.68553956e-05 -6.75722549e-06 -1.12739426e-05 2.31844456e-06
      7.31793762e-07 -1.23895927e-06 2.07998783e-05 1.19509150e-05
      4.46297190e-06 -7.21508695e-06 1.18065998e-07 1.41421551e-05
      1.08272980e-05 2.91841261e-05 2.25463809e-05 6.72293163e-06
      4.15327349e-06 -8.87066653e-06 -4.88213982e-06 -1.52673456e-05
      -8.92789649e-06 -6.81465144e-06 8.74355283e-06 1.71883621e-05
      -8.10280471e-06 -8.11167865e-06 -1.90603350e-05 -1.40397615e-05
      2.73445494e-05 2.86735467e-05 -1.91103504e-06 -9.91613706e-06
      2.99530002e-05 -1.30712988e-05 -1.68230126e-05 -2.80771042e-06
      -1.20238055e-05 -1.34391703e-05 -2.24428095e-06 9.77724176e-06
      7.04509466e-06 -7.71744999e-06 -1.39445910e-05 6.17229432e-07
      1.38279556e-05 2.96465041e-05 1.27456660e-05 -6.69857991e-06
      1.67512080e-05 1.57549439e-05 3.96217274e-06 -7.98390101e-06
      -2.74793929e-05 -1.00232328e-05 -5.32472768e-06 7.31966747e-06
      -3.97897020e-05 -1.15763760e-05 -5.34492710e-06 -1.79862964e-05
      1.59891915e-05 4.11331821e-05 2.62864778e-05 5.21867923e-06
      8.00624730e-06 -1.27158864e-05 -6.13226575e-06 -1.37284042e-05
      -2.29117759e-05 6.51092068e-06 2.45000883e-05 2.54924234e-05
      -1.34938800e-05 -5.03035471e-06 1.56650949e-05 -7.88520720e-06
      -1.77945185e-05 4.43674980e-06 -4.04379534e-06 -9.38456378e-06
      1.76315498e-05 1.02482545e-06 5.07526465e-06 3.19345509e-06
      -9.18974183e-06 -9.36642755e-06 1.76594926e-06 1.49185034e-05
      -6.22868765e-06 1.05069876e-06 1.55435430e-06 -1.26658847e-06
      -8.86241105e-06 -2.75602379e-05 -1.58999501e-06 -8.47551576e-07
      -6.23197730e-06 -3.23446184e-05 -1.53241563e-05 -2.55273540e-06
      4.44766783e-06 -5.26898521e-06 -1.30476712e-06 -6.46369881e-06
      -1.91297349e-05 -2.05742508e-05 1.07468095e-05 2.24021733e-05
      -5.88273588e-06 1.14489933e-06 5.75381910e-06 -9.28170357e-06
      1.91831646e-06 1.56811382e-06 -9.16327826e-06 -3.41604641e-06
      -1.16291392e-06 -1.78216742e-05 3.53852670e-06 2.01194653e-05
      1.39530687e-06 -1.28903348e-05 -3.85983094e-06 4.16631019e-06
      4.95744916e-06 -9.62362174e-06 5.32763534e-06 1.25415572e-05
      3.38888299e-06 -2.21263181e-05 2.90092066e-06 2.95224368e-06
      1.32747147e-07 4.03040167e-06 7.33143179e-06 3.75355830e-06
      1.59039791e-06 -5.85242060e-06 2.65528456e-06 5.78303002e-07
      6.41877068e-06 1.51442764e-05 -2.85503188e-06 3.85648150e-07
      2.52464106e-05 -7.45859188e-06 -1.44094902e-05 2.20198302e-07
      -5.70009433e-06 -1.77457550e-05 -3.76373737e-06 1.23592154e-05
      -3.96048836e-06 -8.94152981e-06 -5.53926930e-06 3.58607508e-06
      5.35241588e-06 -1.06652906e-05 -1.15483226e-06 -1.33023519e-07
      7.92895844e-06 -1.73410936e-05 7.66616085e-06 1.71111537e-06
      -3.49601441e-06 -6.11185260e-06 -4.87411512e-07 -4.26079623e-06
      -1.22569674e-07 -8.60909677e-06 1.57115858e-06 6.75319006e-06
      -5.86708938e-06 -4.86608144e-07 1.99667988e-06 -5.73284808e-07
      3.42573621e-05 -2.31887884e-06 1.68347322e-06 1.82347103e-05
      -1.50737023e-05 -1.55569760e-05 -2.36123947e-06 1.05045601e-05
      -5.27104294e-06 -1.54066238e-05 -7.58179795e-06 4.82316773e-06
      1.94924742e-05 -2.37509607e-06 2.21717210e-06 -1.82125098e-06
      1.24059461e-05 -5.77278934e-06 -5.15470265e-06 -2.71515410e-06
      -1.01837372e-06 -2.12796635e-06 2.15515183e-06 -1.64825415e-05
      4.26136967e-06 2.57340457e-06 -4.08455799e-06 6.11240830e-06
      7.63897151e-06 -7.58130545e-06 -2.48025117e-06 -2.79019810e-06
      2.90814023e-05 -5.03988394e-06 4.86739418e-06 1.06730513e-05
      -5.56330406e-07 -1.11532263e-05 -6.50614993e-06 2.36375508e-05
      8.99121369e-06 -8.28910743e-06 -1.04143851e-06 -1.32428761e-06
      1.68845436e-05 -7.68942573e-06 -4.47922548e-06 6.07280754e-06
      1.31658562e-05 -1.34090178e-05 -6.85133455e-06 -5.87968358e-08
      9.83762493e-06 1.08968543e-05 -7.20387732e-07 -1.38370542e-05
      5.02225885e-06 1.07460164e-06 4.27206396e-06 9.96842664e-06
      7.99890859e-06 5.55460429e-06 -4.53628627e-06 -1.37734951e-05
      -3.11447252e-06 -1.43567888e-06 1.56034423e-06 2.21488153e-06
      4.73749378e-06 8.04579304e-06 -6.23196547e-06 1.66454465e-05
      1.62313063e-05 7.58721444e-06 -1.05232457e-05 -2.43496106e-05
      7.12255041e-06 1.21674220e-05 1.20538571e-05 2.69038264e-06
      3.50868527e-06 9.24499091e-06 -6.62420007e-06 -1.00879852e-05
      -8.64969388e-06 2.52612654e-06 8.90137380e-06 -2.17202069e-05
      -9.79567994e-06 2.43160957e-06 -3.74017236e-06 -4.66672827e-06
      -3.46807929e-06 2.04866083e-05 -2.02173987e-06 2.95947814e-07
      8.79475010e-06 -5.01562499e-06 -1.85350473e-06 -1.39657334e-06
      -1.69325403e-06 -2.04491357e-07 -8.16113334e-06 1.53028395e-05
      -4.72528063e-06 4.01673276e-07 1.30810952e-06 2.14596571e-06
      7.38877725e-06 6.26105566e-06 4.47247771e-07 -7.40055782e-07
      -8.52603250e-07 1.25266342e-05 8.17551518e-06 -1.59343483e-06
      -1.18464277e-05 -7.67251004e-06 -6.29302531e-06 1.43099919e-06
      -6.97189853e-06 -3.36687526e-06 -6.86156454e-06 -1.29067921e-05
      3.26960344e-06 -5.48833486e-06 -1.92320567e-05 6.80311814e-06
      1.82994900e-05 2.65687754e-06 1.17451600e-05 7.21865717e-06
      2.20389595e-07 -1.16185101e-05 -6.76699074e-06 5.51239418e-06
      -2.42483929e-06 -1.10046467e-05 -3.14361409e-06 1.10528235e-05
      1.53109722e-05 -5.47933951e-06 7.23344237e-06 4.02642627e-06
      1.48074378e-06 -3.59989849e-06 -2.42811143e-06 -4.91436640e-06
      -7.95627147e-06 -5.52229722e-06 3.13428268e-06 7.23408584e-06
      -8.51395544e-06 -4.96384382e-06 4.88599471e-06 -1.14317372e-05
      -1.90626633e-05 -9.03297223e-06 -2.44465639e-07 8.71316558e-07
      1.26941623e-05 -3.19399146e-06 2.09186805e-06 5.68807400e-06
      7.17098146e-06 -9.56775420e-06 1.94727136e-06 9.07027606e-06
      1.56518727e-05 -5.37057622e-06 3.70835323e-06 2.59326043e-05
      2.33616192e-05 -3.74233314e-05 -1.50764572e-05 -1.30202852e-06
      2.13881558e-05 -1.42272884e-05 9.44903695e-06 1.76431695e-05
      6.49442825e-07 -1.10766359e-05 -1.92892749e-05 -6.08500613e-06
      -1.33073888e-06 -5.26993699e-06 7.52284905e-06 2.76916453e-05
      -1.51516297e-05 -1.46095717e-05 -4.67928743e-07 -2.86985710e-06
      1.06187861e-06 8.50791821e-06 1.95585471e-06 8.26106680e-06
      3.54662370e-06 -5.59962245e-06 5.50442110e-07 2.97659062e-05
      8.47244883e-06 -4.36141045e-06 -1.39154490e-05 -2.29713678e-05
      3.75759032e-06 4.21702680e-06 1.44988308e-05 7.09798178e-06
      1.26759869e-06 -2.76477967e-05 -3.32796662e-06 7.87786394e-06
      4.60224510e-06 2.09842692e-05 2.01082385e-05 -2.28294016e-06
      9.87176918e-06 -1.03456466e-06 -1.93471078e-06 -2.71147383e-06
      5.08028006e-06 3.57878926e-05 4.25394455e-06 3.43263378e-06
      6.35260130e-06 4.64241475e-06 -9.11567611e-07 2.85717852e-06
      -2.50555531e-05 6.75812953e-06 2.62486719e-05 1.42819144e-05
      1.46789318e-07 -3.79325411e-06 -2.69747670e-06 -1.81492833e-05
      -1.05855725e-05 4.58395789e-06 6.87807824e-06 6.37893891e-06
      -3.89192792e-06 -2.53070375e-05 -2.60075899e-06 -4.85028886e-06
      2.51605138e-06 4.90005277e-06 4.50710922e-06 1.02738577e-05
      6.43926751e-06 -1.15951516e-05 -8.18345688e-06 -5.81469158e-06
      2.77486129e-06 1.99365149e-05 1.34733182e-05 9.15086184e-06
      2.64441715e-05 1.49568741e-05 1.63895356e-06 -1.42355816e-06
      -1.87576734e-05 7.97630491e-06 7.71896794e-06 1.73779938e-06
      -1.12638090e-05 2.82913902e-07 4.30115463e-08 -2.35957923e-05
      -1.71150750e-05 2.76633345e-05 1.55047783e-05 9.03757609e-07
      -2.05971101e-05 -4.87716443e-06 1.91580602e-06 -4.12168947e-06
      -4.34575031e-06 3.18738012e-06 1.66344053e-05 3.18355001e-06
      -4.73128512e-06 1.06886114e-06 1.01674859e-05 2.00197283e-05
      8.39895256e-06 -8.99646602e-06 -2.88455044e-06 1.30057273e-07
      1.16453703e-05 3.25126985e-06 3.75276545e-06 2.93141625e-06
      -1.98675698e-05 9.01203384e-06 2.76656988e-06 5.38814902e-06
      -1.45131771e-05 7.88177658e-06 1.54859918e-05 -3.68606106e-06
      -2.82599303e-05 -2.84613429e-06 -2.03664513e-06 -6.90347724e-06
      -2.51926285e-05 2.77091453e-06 1.01993137e-05 1.74462148e-05
      3.76977937e-06 1.96461929e-06 1.78530763e-06 -2.14889242e-05
      -8.96970778e-06 -2.75605998e-06 1.47305036e-05 5.00468959e-05
      5.00715714e-06 4.97813289e-07 9.33887441e-06 7.75496119e-06
      5.83678730e-06 3.13595274e-06 9.11465577e-06 6.73374643e-06
      -1.12179632e-05 8.54539110e-07 1.95271714e-05 1.96324054e-05
      -1.76754713e-06 -5.99002851e-06 -9.18047590e-06 -1.76633548e-05
      8.75215733e-07 2.05941578e-05 2.78020543e-05 1.00793659e-05
      -5.61896786e-06 -1.37630677e-05 -1.05088002e-05 5.54848668e-07
      2.77980416e-06 1.97049339e-05 3.11015210e-05 1.77811999e-05
      5.50066432e-07 4.58208342e-06 -7.25677637e-06 9.53633503e-07
      1.18395628e-05 1.24597609e-05 1.54192403e-05 2.03745531e-05
      3.45050944e-06 8.41677956e-06 1.88636241e-05 7.98383735e-06
      -1.98711659e-05 -2.13956628e-06 3.77897049e-06 1.80718798e-05
      -6.78357128e-06 1.05105873e-05 1.43634015e-05 4.31286617e-06
      -2.96483049e-05 -1.94540780e-06 9.31255158e-07 -1.98455064e-06
      -1.51821166e-06 -9.25770621e-07 3.29833460e-06 -2.49407844e-06
      -4.47183629e-06 -1.17313016e-06 1.29794444e-06 7.31954242e-06
      3.97512667e-06 6.87899671e-07 -1.30737762e-05 -1.62284359e-05
      1.65274578e-05 1.76201356e-05 3.38692143e-06 4.27932991e-06
      8.61169337e-06 -5.32956528e-06 8.51392633e-06 -5.05841990e-06
      -2.02279225e-05 5.64521906e-06 3.99788314e-06 2.12007581e-05
      -1.25678098e-05 -4.47246111e-06 5.57049316e-06 -6.49266303e-06
      -2.58673826e-05 1.01504011e-05 2.29044617e-05 -1.82235382e-08
      8.87770739e-07 1.76435503e-06 3.74977253e-06 -1.56785336e-06
      -1.25264760e-05 -5.83627980e-06 6.16346460e-06 -9.21219180e-06
      -2.14819011e-06 2.08373194e-06 6.55362237e-06 -7.65393634e-06
      -1.92867101e-05 -1.06437574e-05 -9.22622121e-08 -2.22182780e-06
      1.31022571e-05 -8.09716039e-06 8.37576681e-06 -9.53071140e-06
      -5.93448522e-06 2.53700341e-06 5.68218275e-06 5.33724960e-06
      -3.04610944e-06 -4.85995906e-06 2.03871841e-05 1.74418346e-05
      -3.91090953e-06 -1.78249647e-05 -8.62072739e-06 -2.11084280e-05
      9.10824201e-06 2.02196934e-05 1.13673750e-05 2.42959904e-05
      -8.87774718e-07 -5.52064785e-06 -1.41054470e-05 -4.55119880e-05
      4.58432822e-07 1.19148135e-05 7.25258087e-06 9.29070029e-06
      -2.68638978e-05 -1.44130518e-05 9.60000307e-07 3.97808253e-06
      -2.28094741e-05 -7.14132693e-06 6.10207780e-06 8.00679118e-06
      -6.29168608e-06 -1.42548706e-05 1.98290718e-06 1.27833810e-05
      -1.20577306e-05 -5.70963948e-06 -7.13213876e-06 -8.22612128e-06
      2.10517646e-06 1.48932997e-06 9.06060177e-06 1.25148954e-05
      -1.01072828e-05 -1.41247619e-05 2.70528585e-06 -2.60535870e-07
      -3.60349350e-06 9.32497733e-06 2.78376119e-05 4.31349945e-05
      -8.58905969e-06 -4.85125111e-06 2.02514207e-06 6.66531861e-08
      5.23057042e-06 -9.47659601e-07 2.50446792e-05 3.25269320e-05
      -2.41117486e-05 -4.30562068e-06 -8.67980452e-06 -6.04424304e-06
      -9.53749986e-06 2.92058212e-06 3.51122217e-05 9.35885964e-06
      -1.53183337e-05 -5.68006362e-06 1.04840706e-06 1.25584820e-05
      1.35708869e-05 5.67531515e-06 4.72105239e-06 -6.78604920e-06
      4.38544839e-06 1.99136639e-06 7.02281886e-06 4.41778593e-06
      -1.37890293e-05 -1.25190627e-05 -3.96081805e-06 8.30311183e-06
      -1.54493682e-05 1.68710699e-06 1.94580934e-06 6.00187241e-06
      1.73415901e-05 -3.59603814e-06 1.09197072e-06 4.03490776e-06
      1.28640215e-06 9.94570291e-06 -3.67878602e-06 4.96400207e-06
      5.19130299e-06 -8.67196206e-07 -1.00179232e-05 -2.56022827e-06
      -1.13776541e-05 -1.61721709e-05 -6.81795655e-06 4.61352192e-06
      1.63881141e-05 4.54678957e-06 -7.45806119e-06 -4.13672524e-06
      6.05633568e-06 8.87722581e-06 -2.78699531e-06 -7.79358015e-06
      -2.68708663e-06 8.03228431e-07 -4.52825645e-07 -8.74245598e-06
      -1.66734008e-05 9.84264352e-06 -2.88191245e-06 1.48353074e-05
      2.34009240e-05 1.75558023e-06 1.72637885e-06 -8.30330919e-06
      2.21849041e-06 1.80241987e-05 -2.73796672e-06 1.06400603e-05
      1.69196392e-05 -4.34742014e-06 -2.43392205e-05 -3.26231293e-06
      -2.41284420e-06 9.53819472e-06 1.97762620e-05 1.37521693e-05
      1.96912533e-05 -1.13096639e-05 -2.09362261e-05 3.71735109e-06
      6.23546725e-08 1.35918808e-05 1.78371956e-05 1.61587604e-06
      -3.32288073e-06 7.48812181e-06 -7.10410768e-06 5.32778984e-07
      -7.44420913e-06 1.36871477e-05 1.12910384e-05 1.40829898e-05
      9.49984440e-07 6.86063959e-06 -1.11964118e-06 -9.13273470e-06
      7.05986213e-06 6.13526799e-06 1.98065100e-05 1.06146763e-05
      -7.88647958e-06 -9.81525136e-06 -1.15464650e-06 1.40100638e-05
      -1.02706936e-05 -9.12447922e-06 1.51502045e-05 1.19633278e-05
      -1.83798475e-05 -6.82643258e-06 1.18043135e-05 9.33441697e-06
      -2.54477200e-05 -2.17501583e-05 1.03613120e-05 6.80465519e-06
      -4.53975758e-07 1.70234380e-05 2.24305932e-05 1.66922910e-05
      8.50517881e-06 2.56246199e-06 1.28153079e-06 -7.99447832e-07
      -5.16645241e-06 4.01771867e-05 2.46401705e-05 1.53430556e-05
      1.59319789e-05 -2.04842217e-05 -8.56817314e-06 6.41032238e-06
      -7.63132630e-06 5.62086598e-06 2.80534896e-05 1.00441466e-05
      -2.82713017e-06 -3.28223359e-06 6.21630079e-07 -3.89186926e-06
      -1.01013793e-05 -1.32221276e-05 1.30688331e-05 1.14591467e-05
      -1.65889414e-05 -1.21857538e-05 2.31566150e-06 1.98373232e-06
      3.10646556e-06 6.99404700e-06 8.52807170e-06 4.25234521e-06
      1.67528888e-05 7.56401550e-06 1.49522407e-06 2.12323448e-06
      -7.48420189e-06 2.49306095e-06 6.69945530e-06 4.73874252e-06
      1.51366930e-05 -2.48462602e-05 -5.55446604e-06 7.88018383e-07
      1.22151960e-05 1.18041817e-05 7.33675279e-06 -3.99383362e-06
      4.12478903e-06 1.96061274e-06 -1.89636785e-06 -1.73581011e-05
      -1.87199282e-06 -1.79501822e-05 -9.24647702e-06 -8.15761359e-06
      -2.25509302e-05 7.46048681e-06 8.74087436e-06 7.40657151e-06
      1.74951638e-05 -2.94579877e-06 -5.17446733e-06 -3.08025446e-05
      7.24252322e-06 1.58680432e-05 1.02148579e-05 1.05427525e-05
      1.53596284e-05 -1.47423507e-05 -7.04787908e-06 1.89592072e-06
      7.17772127e-06 -1.46154844e-05 1.01315727e-05 1.01919522e-06
      1.75527239e-05 2.21960327e-05 -2.43851696e-06 -8.11311963e-07
      -7.72250132e-06 -2.95038922e-06 1.46041948e-05 7.39618963e-06
      2.22701037e-05 7.63375624e-07 5.22151936e-07 -8.82682968e-07
      7.81443418e-07 -7.09382618e-07 3.20358158e-05 2.04973348e-05
      4.24162499e-06 6.50203719e-06 5.32451895e-06 1.64641953e-08
      4.97452174e-06 4.19274011e-06 3.72497452e-05 1.33654821e-05
      2.79788765e-06 5.13374562e-06 5.15873307e-06 5.55857923e-06
      2.14284864e-06 -3.65265782e-06 3.51254334e-06 -1.41483906e-05
      -4.46419335e-06 9.40630161e-06 2.50408393e-05 2.36481901e-05
      -4.68325743e-06 -8.06539504e-07 -2.04332628e-06 6.33964828e-06
      -2.42082911e-06 8.74429134e-06 1.63061341e-05 1.35929599e-06
      1.36034964e-06 -7.48039702e-06 7.35419746e-07 1.18044807e-06
      -3.45135595e-06 -1.02614404e-05 1.37076822e-05 1.14342156e-05
      4.70466460e-07 -8.52779885e-06 2.77729919e-06 2.27476653e-06
      2.24264040e-05 9.81173616e-06 1.09634639e-05 1.75326040e-05
      1.58998864e-05 2.85634360e-06 1.45568276e-06 8.85013651e-06
      -5.72753424e-06 -3.41176315e-06 -3.46204672e-07 -8.80926200e-06
      -1.28668546e-07 -5.98516237e-07 -4.08870847e-07 -1.29600414e-06
      -8.96408073e-06 -7.88100533e-06 -1.28849047e-06 -9.19192007e-06
      2.78350086e-07 -1.19878705e-05 8.43698331e-07 3.06676107e-08
      2.54413862e-06 -1.95077755e-05 -3.32237687e-06 -1.76150900e-06
      7.48830780e-06 -8.67969266e-06 1.45022807e-06 8.30501790e-07
      3.47491505e-06 -1.01247833e-05 6.15038789e-06 4.11891551e-06
      2.85901515e-05 8.78499668e-06 3.15985687e-07 -1.90218117e-07
      -6.49282174e-06 -8.86676389e-06 -3.67698658e-06 6.02501359e-06
      -1.54153167e-05 -7.10586505e-07 6.22585549e-06 -4.02565183e-06
      7.11736163e-07 -8.89555395e-06 1.84992623e-05 4.91797073e-06
      3.29708064e-06 7.89072237e-06 1.16232413e-05 3.27304610e-06
      -9.06523655e-06 -2.41871362e-06 9.74250725e-06 -1.52633856e-05
      -6.99296515e-06 7.60939747e-06 3.41090490e-05 1.75956975e-05
      -3.12853058e-06 -2.00045997e-05 -3.18812590e-06 -2.51475785e-06
      2.67013038e-05 1.07771020e-05 -2.48627407e-06 -1.34709899e-05
      -6.23640744e-06 -6.10847763e-08 5.44193517e-06 -2.96809890e-06
      -1.32732457e-05 -4.32328058e-08 9.77102627e-06 -4.86345016e-06
      -2.44954526e-06 -2.54925708e-05 3.64798575e-06 -6.18571903e-06
      -1.19575052e-05 1.56925344e-05 6.63447690e-06 3.02139438e-06
      3.98520433e-06 1.18842254e-05 1.59240681e-05 -2.59937751e-05
      -6.83433473e-06 4.63777678e-06 2.83362879e-05 2.99999956e-05
      1.10770679e-06 7.70427505e-06 1.16308211e-05 9.69751727e-06
      -1.09380335e-06 3.40972565e-06 5.59801663e-07 -1.37706120e-05
      -4.08623191e-06 1.10839437e-05 8.22019138e-06 2.80650943e-06
      4.90494267e-06 4.13587122e-06 -9.27307701e-06 -6.00005023e-07
      8.82835138e-06 2.15367504e-06 -2.45361116e-06 6.26521251e-06
      1.56957103e-05 -1.56596275e-06 -1.39824488e-06 9.11143616e-06
      6.69816203e-08 -2.78685457e-05 -8.41716655e-07 1.82771655e-05
      -6.75670026e-06 -1.19257675e-05 6.40231406e-08 3.15695411e-06
      1.78182927e-05 8.45783416e-06 -3.49286324e-06 1.98234466e-06
      2.34296003e-05 7.26545568e-06 -9.40058158e-07 -2.74854210e-06
      -7.79751736e-06 -1.17445586e-06 -9.13762779e-06 2.49744812e-06
      -1.65168949e-05 -5.55304177e-06 3.98322709e-06 1.07189517e-05
      7.26395183e-06 9.88783904e-06 1.28280533e-06 -2.25432791e-06
      1.20017357e-05 1.57628745e-06 1.38828709e-05 3.03374804e-06
      -1.42158669e-05 -3.22721535e-05 -1.75427908e-06 9.09353457e-06
      -3.76017397e-06 -8.45109935e-06 -3.88627268e-06 9.76465617e-06
      2.47530152e-05 -1.97604477e-05 5.68878568e-06 5.97239978e-06
      3.00135998e-05 2.65029703e-05 1.79272047e-05 7.59142131e-06
      -8.88918839e-06 -2.60158777e-05 -1.35704722e-05 6.90836850e-06
      -1.31788283e-05 -1.26554287e-05 3.24154576e-06 2.24531286e-05
      1.61873777e-05 -3.78723121e-06 9.58083729e-06 -2.34608095e-07
      1.35949122e-05 1.02040049e-05 -3.18398207e-07 -1.39614222e-05
      -1.19224424e-05 1.54275185e-07 9.42365477e-06 -5.01089744e-06
      -6.87850252e-06 2.94418328e-06 1.49481666e-05 6.91425370e-08
      1.17296604e-05 -1.59558531e-05 -5.91122807e-06 -1.52200400e-05
      2.26848551e-05 5.22069695e-06 2.65402900e-06 3.62622745e-06
      1.10307974e-05 -1.26010036e-05 1.51125014e-05 1.37926418e-05
      5.71277087e-06 3.78076948e-06 2.15163109e-05 2.00655959e-05
      8.05494892e-06 -3.88842964e-05 -9.39794245e-06 -4.23393587e-08
      2.69728093e-06 7.45609395e-06 6.64078289e-06 2.68635972e-06
      1.12620717e-06 -8.49957996e-06 -1.21079374e-05 -2.63588317e-05
      -6.15665431e-06 1.16405881e-05 1.34603697e-05 1.10327965e-05
      1.41844703e-06 1.71715214e-07 6.17971364e-06 -1.99115639e-05
      7.22932327e-06 3.45097897e-06 1.56141068e-05 -7.97206576e-06
      -1.49620791e-05 -6.59050272e-07 -1.00594498e-05 3.48382946e-06
      8.40533539e-06 -4.28613430e-06 -1.54228619e-05 -9.58274541e-06
      -3.02891258e-05 9.95559367e-06 -3.98374232e-06 5.63734375e-06
      -2.32379134e-05 1.42251554e-06 -4.70494388e-06 -1.18882724e-06
      -9.85232236e-06 -1.13755032e-05 6.99981865e-06 5.00872011e-06
      -9.02385545e-06 1.24529527e-06 -9.19475315e-06 -3.01760156e-06
      5.16580485e-06 9.56926397e-06 1.30293674e-05 1.39279800e-05
      1.26096402e-05 4.63419883e-06 -9.22291633e-07 -9.88945067e-06
      -2.40178342e-05 5.33316506e-06 1.69475588e-05 2.50169778e-05
      -8.07620927e-06 1.08425290e-07 1.06333582e-05 2.75884959e-05
      -8.78532592e-06 -4.02327345e-07 3.81367659e-06 -7.64236484e-06
      1.98212865e-06 2.76770352e-05 1.79926519e-05 4.88602518e-06
      -1.64405938e-05 -1.21691655e-05 -1.12504094e-05 5.25630014e-07
      -9.08795471e-07 1.07682390e-05 -1.27056055e-05 -1.28096463e-05
      -3.34466108e-07 7.78326012e-06 -1.52250259e-05 -8.38397864e-06
      1.53658020e-05 -1.06471748e-06 3.53755354e-06 -5.68570658e-06
      -3.74025785e-06 -2.46368290e-06 -2.37366612e-06 4.27420628e-06
      1.71859335e-06 -1.09238144e-05 2.83989471e-06 2.31957110e-05
      2.08716792e-05 -1.94997992e-05 -1.44649339e-05 -2.77675849e-06
      2.13410040e-05 1.31501019e-05 3.00634338e-06 -8.26512496e-06
      -9.68638506e-06 -2.98423879e-06 -1.61181615e-05 -1.20559844e-05
      -2.98838495e-06 1.59199462e-05 6.88179568e-07 -1.39392359e-05
      -1.09818766e-05 5.90882155e-06 -5.20436242e-06 -1.94256427e-05
      1.34648826e-06 -5.76416051e-06 1.43807765e-05 1.43067455e-05
      1.35988184e-05 -1.14495288e-05 4.06306208e-06 -1.18304695e-06
      2.29149409e-05 -1.03998691e-05 1.18721869e-06 3.35956756e-05
      3.24804641e-05 -1.59669798e-05 -1.46849061e-05 4.80537028e-06
      3.38738100e-05 1.31941879e-05 -7.92573246e-06 -7.69712824e-06
      -3.06453535e-06 1.32769483e-05 -1.43431444e-05 -6.94455230e-06
      -3.06045035e-06 1.59563206e-05 -5.78630443e-06 -3.98845577e-06
      4.90476509e-07 1.38648256e-05 -3.74310252e-06 -1.70765052e-05
      -1.45362890e-06 1.95173334e-06 7.86692635e-06 -9.25000859e-06
      -1.25572296e-05 -2.74531067e-06 1.01755350e-05 2.69510583e-05
      -4.02047590e-06 -1.11897825e-05 -6.82035761e-06 -1.13780407e-05
      1.48595145e-05 1.04486562e-05 9.78403204e-06 3.86426473e-06
      1.39094152e-06 -2.86427621e-06 -2.21688492e-06 -1.85907766e-06
      -7.75955141e-06 4.11800011e-06 1.05071922e-05 6.41883207e-06
      -6.43299882e-06 -7.58612316e-07 -3.77434822e-06 -4.29597122e-07
      3.52853954e-06 2.81156608e-05 7.72640578e-06 2.93960329e-06
      1.50660958e-06 2.86371142e-06 -3.30615512e-06 -1.76579360e-05
      -8.49254502e-06 -3.64813968e-06 1.36113686e-05 1.57392742e-06
      -1.45528320e-05 -2.86146610e-06 8.44439546e-06 1.03138645e-05
      2.15642522e-05 -2.27685018e-06 -5.64922129e-06 -7.24104575e-06
      7.95983033e-06 1.07615397e-05 9.21957235e-06 -7.23509766e-06
      -1.06012822e-05 -3.26865984e-06 -1.15019475e-06 -2.79395636e-06
      -6.28052385e-06 8.97087432e-07 -2.63731772e-06 -1.08663289e-05
      3.34973265e-06 1.72658165e-05 -1.47746800e-06 -1.01772148e-05
      -6.59961734e-06 4.59182593e-06 -4.59621288e-06 -2.32679395e-06
      3.69677173e-06 -6.86655994e-06 3.81678228e-06 -1.14896966e-05
      -3.07761820e-06 -1.26075765e-05 -5.80662572e-06 -1.15094599e-06
      2.32640796e-05 -8.08849654e-06 4.91463709e-07 -7.65306049e-06
      1.12975440e-05 1.13110059e-06 -8.03133207e-06 -1.38912101e-05
      -1.65288111e-06 -2.87406510e-06 3.64178709e-06 -8.64199865e-06
      -1.04994488e-05 5.85271835e-07 -9.45151896e-06 -1.56194201e-05
      -1.47146911e-05 2.10886606e-06 3.04287141e-06 -7.42832481e-06
      -7.91023649e-06 5.91181379e-06 2.18651849e-06 -3.23751408e-07
      5.15910779e-06 -1.73477238e-05 -1.14260592e-05 6.34660921e-07
      1.42498302e-05 -4.00646468e-06 2.14643569e-06 -3.73333273e-06
      2.87858293e-05 -2.45582596e-05 -2.02858082e-05 -8.51959612e-06
      2.99227650e-05 -8.48143713e-07 3.43591864e-06 8.52191806e-06
      3.17617673e-06 -1.18291946e-05 -1.33570684e-05 -1.89323418e-05
      -1.07110111e-06 -4.52210270e-06 1.35894197e-05 3.22127053e-05
      -2.03851414e-05 -1.03912780e-05 -2.76215565e-06 -5.98537781e-06
      1.47658045e-06 -3.76981006e-06 6.75703461e-07 -9.22865456e-06
      -8.55350936e-06 2.71452905e-06 1.36972986e-07 5.75188324e-06
      -7.43240037e-07 -1.80655616e-06 -1.05419531e-05 -1.69658015e-05
      1.50200685e-05 1.29921955e-05 -4.08982260e-06 2.78569132e-06
      3.85150543e-06 -4.71029331e-08 -6.71636553e-06 -5.52847678e-06
      5.25982387e-06 -1.26193072e-07 1.11078079e-05 -1.00683328e-05
      -2.32216939e-06 -1.91704530e-07 1.80313521e-06 -5.17203398e-06
      7.75634362e-06 4.16028661e-06 1.72389791e-05 -7.78388221e-06
      8.70478289e-06 1.58708281e-05 4.94417782e-06 -1.09137154e-05
      -1.45921485e-05 -4.04984257e-06 -8.90256524e-06 -1.35166044e-06
      -1.06675443e-05 -2.03373088e-06 -5.02819694e-06 4.74282479e-06
      1.80069528e-05 -1.43839461e-05 -7.56514282e-06 -7.68044447e-06
      7.87809131e-06 -8.83154462e-06 -3.21532320e-06 4.02263504e-06
      1.57067973e-06 -7.15477472e-06 1.30971250e-06 -5.82284474e-06
      -3.98000384e-06 -3.06793845e-06 -4.45911468e-07 -8.82801771e-07
      8.85741701e-06 5.83727115e-06 9.24033066e-06 -1.88887054e-06
      1.28807269e-05 2.88964420e-05 7.38797871e-06 4.30793072e-08
      -1.15828470e-05 6.46968829e-06 -1.82709471e-06 3.06099628e-06
      -1.27872527e-05 5.90002355e-06 4.14542546e-06 -1.31671495e-05
      1.06146854e-05 -5.39243638e-06 -4.96587154e-06 -1.50844392e-06
      1.38439573e-05 -7.24716301e-07 6.36825689e-06 -2.50424728e-06
      -1.66563711e-06 -1.10208134e-06 -1.13653123e-05 -9.92010337e-06
      -4.77013828e-06 -9.44960959e-07 1.90475439e-05 8.63996502e-06
      -3.20103322e-06 6.78342531e-06 2.98367354e-06 -4.85393002e-06
      1.42255331e-05 7.56454392e-06 1.73233479e-06 4.37663402e-06
      -3.46216871e-06 1.63357199e-05 9.17212310e-06 1.17929437e-06
      6.08115533e-06 1.50621499e-05 2.18095693e-06 8.62672823e-06
      1.47951669e-05 -7.04547983e-06 -1.92566699e-06 -5.92627248e-06
      2.71634326e-05 -1.79840811e-06 9.57491375e-06 7.79515813e-06
      1.32726309e-05 -1.89018863e-06 -6.02181990e-06 -6.92028925e-06
      5.99358282e-06 -8.92556636e-06 2.57166066e-05 2.90707103e-05
      2.28075805e-06 7.80943481e-07 9.27437304e-06 5.18551860e-06
      -3.48632057e-06 -1.21525181e-05 3.35322011e-06 -5.29942190e-06
      -1.00643620e-05 -3.57676186e-07 1.14215454e-05 -7.48509706e-07
      -4.68547614e-06 -1.72894288e-05 -1.02695576e-05 -1.33368367e-05
      -1.21606281e-05 1.30053086e-05 1.07097176e-05 1.05602476e-06
      -1.35049504e-05 -2.13683943e-05 7.03072055e-06 5.66341569e-08
      3.69621466e-06 -1.10363744e-05 1.69605464e-05 1.26690002e-05
      1.10283954e-05 -4.23072470e-06 -2.33871697e-06 -2.82605470e-06
      2.05206948e-06 -2.41447651e-06 8.03954663e-06 2.49121149e-05
      1.11890649e-05 3.08484141e-06 2.87574569e-08 -7.17163311e-06
      -1.08882687e-05 -1.54414447e-05 7.57765883e-06 2.36742224e-07
      -1.37711704e-05 -1.19668921e-05 -1.55722702e-07 1.97905065e-05
      7.41391113e-06 -1.63483583e-05 3.61107868e-06 -4.24630343e-06
      4.71592830e-06 -2.68054237e-06 1.43413263e-05 5.02964667e-06
      -8.18378339e-06 -4.34602134e-06 5.85621365e-06 -2.31422496e-06
      -7.38118558e-07 1.47438743e-06 7.32516810e-07 -5.93752065e-06
      2.16115995e-06 -1.21394041e-05 -2.96128223e-06 -2.43513978e-06
      2.19984649e-05 6.01186412e-06 4.19601292e-06 1.33176047e-06
      5.20915000e-06 -8.03023158e-06 -8.87054102e-06 9.79910965e-06
      2.96394796e-06 -6.67139557e-06 -3.95210191e-06 1.37951129e-05
      2.78829320e-05 -1.87835230e-05 -1.73165263e-05 -8.52640733e-06
      1.41332757e-05 8.51879304e-06 -1.33677884e-06 -6.36187042e-06
      2.81963753e-06 -1.68320059e-06 -1.20362693e-05 -3.15906036e-05
      8.55368285e-07 4.78880747e-06 5.57104659e-06 7.63997014e-06
      1.41805103e-05 -1.00308841e-06 -1.69400334e-06 -1.13203978e-05
      2.45905685e-05 -1.19528895e-05 9.54929328e-06 -9.53700919e-07
      -8.01481292e-06 -1.52948292e-06 -4.19230946e-06 1.47083101e-05
      2.99768726e-06 -1.55739563e-05 -4.56788257e-06 9.96582366e-06
      3.20000036e-05 -3.05481353e-06 -1.26604818e-05 -1.37254628e-05
      3.14119097e-05 3.70835078e-05 -1.12795296e-05 -4.80901417e-06
      7.31987666e-06 3.23816471e-06 -5.50676123e-06 -3.03590296e-05
      -2.27066016e-06 8.51147706e-06 1.70448529e-05 3.26671579e-05
      1.13303913e-05 -1.68435542e-06 2.92019695e-06 -1.03677885e-05
      -3.56986266e-06 8.39309268e-06 5.85995258e-06 -3.17508898e-06
      7.15819215e-06 2.35710286e-06 2.78330444e-05 1.87765781e-05
      9.64878291e-06 5.77108176e-06 5.30845909e-06 -1.48787476e-05
      1.11952058e-05 1.13708029e-05 -3.42534508e-06 2.62382127e-06
      2.57271022e-05 1.27317280e-05 -1.61292405e-06 -1.28266438e-05
      -1.55957205e-05 -2.97762599e-05 -8.54681821e-06 8.11281438e-07
      -1.37720701e-06 -1.01791647e-06 -9.75689659e-07 1.04430419e-05
      1.01955302e-05 -2.90621992e-05 -1.24629769e-05 -6.71540556e-06
      9.98853466e-06 1.48131130e-05 -7.38949041e-07 -1.39389240e-05
      8.63410150e-06 6.70784084e-06 1.98639973e-05 -1.38688335e-06
      1.06875314e-05 -2.05542119e-06 -1.72437631e-05 -5.77977626e-05
      2.97649294e-05 2.99908625e-05 5.44926388e-06 3.47135915e-06
      2.96994949e-06 -1.94089844e-05 -1.58542789e-05 -1.78749506e-05
      2.87436706e-06 -9.89338150e-06 -2.60650268e-06 5.56521127e-06
      6.30353588e-06 -5.90457876e-06 -3.99812916e-06 -7.07026493e-06
      1.57973482e-05 -2.96277926e-06 -1.00238713e-05 -2.87968760e-07
      2.67563191e-05 1.08781733e-05 3.81870586e-06 -7.54555731e-06
      -2.50628705e-06 2.65593576e-06 4.55559075e-07 4.43243607e-06
      -3.85372550e-06 6.05287732e-06 7.09904361e-06 -2.17818215e-05
      -4.73395119e-07 -2.93106359e-06 -1.25857523e-05 -1.01173225e-06
      -7.41174654e-06 2.97921270e-06 3.05204890e-06 -3.94457129e-06
      -1.18012061e-07 -1.43749628e-06 -2.35292021e-07 7.17203193e-06
      3.01054615e-06 5.54394228e-06 3.04475975e-06 -2.10555368e-06
      -4.30566524e-06 -3.12104976e-06 -3.99309965e-06 -1.97596273e-06
      1.84696364e-05 -7.43232431e-06 4.23126721e-06 1.88953600e-05
      -3.77248989e-06 3.71056672e-06 2.35556809e-06 1.18231799e-06
      9.80185996e-06 -1.91618085e-07 9.61396199e-06 2.46236505e-05
      -4.29464671e-06 -1.90373412e-05 -1.69339091e-06 3.14724002e-06
      2.84898465e-06 9.09979553e-06 -1.20379791e-05 -1.82160875e-06
      -1.10580140e-06 -4.63061542e-06 -4.40424037e-06 4.63445622e-06
      2.89021955e-06 5.16243199e-06 -6.90013667e-06 1.27174999e-05
      2.47868570e-06 5.86974124e-07 1.52034897e-06 -1.11020961e-06
      5.87525165e-06 2.23160205e-05 2.02276187e-05 -1.22330457e-05
      1.70720577e-05 7.76164870e-06 2.15770706e-05 1.55411344e-05
      2.99424355e-05 3.56540909e-06 -2.81586767e-06 -5.53750112e-08
      3.57892677e-05 4.76865625e-06 8.17085856e-06 2.32515195e-05
      3.40897968e-05 -1.21062149e-05 -8.92359640e-06 -1.30157332e-06
      8.10296297e-06 -7.11899338e-06 4.55430126e-07 4.38378493e-06
      -5.54914459e-06 -8.06630396e-06 -4.95867062e-06 -1.39021225e-07
      7.67108759e-06 1.59878891e-05 1.73448316e-05 1.27405392e-05
      2.32041748e-05 -6.86825160e-06 -1.53935616e-05 -1.11583404e-05
      5.48054641e-06 2.22553790e-05 3.72600407e-05 7.06707260e-06
      7.76796151e-06 -8.33248396e-06 -2.35779535e-05 -3.62617538e-05
      2.74491194e-05 3.04132300e-05 1.05033405e-05 -2.26414090e-06
      9.79896231e-06 -3.18966122e-05 -1.71661450e-05 -9.96041945e-06
      5.47973627e-07 -8.13214501e-06 -6.80485800e-06 4.21089271e-06
      2.90833168e-06 -7.77410241e-06 -2.24946734e-06 -8.52980429e-06
      -6.29609940e-06 -4.54502197e-06 4.04992352e-06 -7.25088171e-07
      2.05830911e-05 -7.88946272e-06 -1.22801212e-05 -8.64367451e-07
      1.20490608e-06 2.90891307e-06 -4.47265279e-07 3.85645944e-06
      -1.84353157e-05 -1.58982493e-05 -1.52267266e-05 -2.06484692e-05
      8.39456879e-06 3.19248720e-05 2.32602670e-05 3.57842214e-06
      -7.62659965e-06 -1.56014703e-05 -4.69391080e-06 -1.07838532e-05
      -7.75897843e-06 1.63981485e-06 2.36376691e-05 2.41777725e-05
      -1.09326420e-05 -2.09039763e-06 6.55629310e-06 -1.25728786e-06
      -4.73471630e-07 -1.25570887e-05 -6.38174561e-06 -4.04943876e-06
      3.74884962e-06 6.38762367e-06 1.27712356e-05 2.94553865e-06
      3.16350935e-07 -7.14651560e-06 -1.93485284e-05 2.55262444e-06
      8.63905484e-07 -4.97344536e-06 4.52749964e-06 -1.16379761e-06
      -1.95514422e-05 -2.45415213e-05 -9.59830413e-06 -3.99456940e-06
      -2.49589793e-05 -3.92542242e-05 -1.61436201e-05 -2.03662626e-06
      -6.06855929e-06 -2.62435674e-06 -8.04393096e-07 -9.77355739e-06
      -1.00037742e-05 -2.18058976e-05 -1.37887191e-05 1.25573824e-05
      6.34699381e-06 1.65928645e-06 6.61293689e-06 -7.50140543e-06
      3.76973844e-06 -5.46783849e-06 -1.49816433e-05 5.42118005e-06
      7.12983729e-06 -1.06218622e-05 -1.87203841e-05 1.22601259e-05
      2.52548534e-06 -5.24719280e-06 -1.85327899e-05 -9.22838535e-06
      -1.37998825e-06 -5.87487102e-06 -5.33571165e-06 -5.50907180e-06
      4.29989268e-06 -2.04259504e-05 -3.04561831e-06 1.89232139e-06
      1.24835242e-05 -3.61959565e-06 -2.23267944e-06 1.01666928e-05
      1.38035221e-05 -7.58296028e-06 -2.08300639e-06 4.19399839e-06
      7.64778360e-06 1.20018485e-05 -5.83886958e-06 1.06048747e-05
      9.41927101e-06 -1.45977165e-05 -3.24152497e-05 -2.15742275e-05
      -4.43668750e-06 -8.84170822e-06 -4.03109470e-06 1.21142784e-05
      -6.87618831e-06 -9.14309385e-06 -7.82806455e-06 6.79531922e-06
      2.36152573e-05 1.22551171e-06 1.27503927e-06 -3.53416317e-06
      1.09377368e-06 -1.84531916e-06 5.14629119e-06 -1.02501410e-07
      -1.27950204e-06 -1.09948894e-06 -9.71389818e-06 1.07550989e-06
      4.75520181e-07 -1.13701735e-05 -7.37758091e-06 -9.65022537e-06
      -1.76921631e-07 1.44813566e-05 -1.45882150e-05 3.76077082e-06
      2.32486764e-05 -1.39902222e-05 1.23110465e-06 -5.83605470e-06
      -2.55747977e-07 -1.84688597e-05 -7.31103046e-06 -9.29266571e-06
      4.51876213e-06 -1.35244463e-05 -3.78859340e-06 2.57524807e-05
      3.62640822e-05 -1.95482789e-05 -2.11036058e-05 -1.47046230e-05
      6.08098890e-06 1.27880621e-05 7.01088493e-06 5.36808011e-06
      -3.82252074e-06 -3.54728968e-06 -7.94323114e-06 -1.39849917e-05
      -1.15965358e-05 4.67184827e-06 1.99403767e-05 5.49682773e-06
      -1.25983815e-05 -1.23000007e-06 6.01711236e-07 1.51132110e-06
      2.38553821e-05 1.65948313e-06 1.39411995e-05 1.51550694e-05
      8.36020627e-06 -1.75752739e-05 -4.52295126e-06 -7.22180766e-06
      1.95944940e-05 -1.88637860e-05 -9.60174020e-06 4.32651432e-05
      3.95164716e-05 -1.96606397e-05 -1.22354231e-05 -2.99124508e-06
      1.23966838e-05 2.38182406e-06 -1.55104626e-05 7.51802008e-06
      3.59643013e-06 -1.14533270e-06 2.02351634e-06 2.44180592e-06
      -1.28398970e-05 1.01148116e-05 1.17318286e-05 1.62322413e-05
      -5.13253508e-06 -4.64075811e-06 7.88395300e-06 7.93921117e-06
      -1.04632973e-05 -1.50470605e-05 -2.69685916e-06 6.58865838e-06
      -1.00819243e-05 -3.63620097e-06 -4.44655234e-06 6.99564998e-06
      -2.04564603e-05 -1.99555088e-05 -6.08691062e-06 -1.28618167e-05
      -3.92238580e-05 -6.03706576e-06 4.72362353e-06 3.53274640e-06
      -4.00918943e-05 -1.13718042e-05 -3.85780766e-07 -2.93022981e-06
      -1.05045401e-05 -2.65717117e-05 5.66768620e-07 -1.42184956e-06
      -1.46934744e-05 7.38546123e-06 -8.26082214e-06 1.10267329e-05
      4.13670796e-06 -2.18591977e-05 4.86485135e-07 -8.33453487e-06
      -3.42986641e-06 -1.16676929e-05 -6.13290331e-06 -4.94324240e-06
      -1.35539076e-05 4.71660269e-06 -1.31429179e-05 -3.72673685e-06
      -2.18605892e-05 1.64331675e-06 2.13753156e-05 5.10195205e-05
      5.48642265e-06 -1.15805187e-05 -8.15159547e-06 -1.12341095e-05
      2.15919317e-06 3.19189930e-05 2.80997774e-05 1.03771235e-05
      -1.57880222e-05 -1.25467895e-05 -2.50086737e-06 -6.73713248e-06
      -3.88134549e-06 1.16825468e-05 -1.40320026e-05 -7.59513796e-06
      -1.56338556e-05 -3.86846477e-06 1.43028888e-06 2.36691881e-06
      -6.38418533e-06 -2.64760547e-05 1.05549498e-05 -8.08923232e-07
      1.53495421e-05 -4.71933754e-06 -1.08528993e-05 -3.20734239e-06
      1.09062785e-05 -5.60547960e-06 4.99189264e-06 3.74776719e-05
      3.37714373e-05 -5.22848895e-05 -2.72922734e-05 -1.34302172e-05
      1.92815442e-05 2.06156456e-05 8.48957916e-06 7.53452969e-06
      -6.25404994e-07 -1.72417040e-05 -2.11145107e-05 -4.70300511e-05
      7.76737306e-06 1.45559388e-05 1.94169224e-05 7.45180660e-06
      -2.10595408e-05 -1.56911901e-05 -6.78481592e-06 -6.68686016e-06
      -9.94404672e-06 -1.42320705e-05 2.34002855e-05 1.64615467e-05
      2.27693563e-05 1.52863180e-07 5.20959748e-06 -1.08284103e-05
      2.05446031e-05 -1.15623934e-05 5.08055287e-08 4.32469351e-05
      6.35037723e-05 -3.16067235e-05 -1.70102521e-05 -7.42183875e-06
      5.69279182e-05 1.64452485e-05 3.29592012e-06 1.56519927e-05
      8.91264335e-06 -6.17548176e-06 -9.84711824e-06 -2.08255024e-05
      3.83498173e-06 2.15510954e-05 3.44086693e-05 9.95074879e-06
      -8.92581375e-06 -6.22292009e-06 9.55325140e-06 6.61472086e-06
      -8.14478062e-06 1.90472338e-06 7.90354170e-06 3.91323238e-06
      9.86844134e-06 -1.56380668e-06 -2.14939791e-06 -3.06476090e-06
      1.24536955e-05 -1.75700116e-05 -1.62137876e-05 -7.53774475e-06
      3.01805103e-05 1.95983430e-05 1.08745201e-06 3.73312855e-06
      3.29321374e-05 -1.34930988e-05 -2.30709375e-05 -2.72685838e-06
      -1.04532110e-05 -1.09931279e-05 1.42098497e-05 1.25357528e-05
      3.66727591e-07 -5.36256357e-06 -2.20455968e-05 -5.46920137e-06
      -2.34618415e-06 -1.38829337e-05 2.14816464e-05 1.92186599e-05
      -1.27551120e-05 1.58493549e-05 9.00214491e-06 -6.15265890e-06
      -1.84774144e-05 7.52223559e-06 2.44451057e-05 1.35220853e-05
      -5.81775066e-06 -5.95493475e-07 1.15174144e-05 -2.42710812e-05
      7.92969422e-06 2.93941630e-05 1.61785681e-06 -8.87289752e-06
      2.40396257e-05 -7.67785787e-06 -1.29774708e-05 -1.11996105e-05
      -1.79832168e-05 -2.48415072e-05 -4.25312510e-06 9.16526733e-06
      -7.24864435e-07 1.30255955e-07 -1.39438707e-05 2.15545037e-06
      -5.14831299e-06 -2.48322103e-05 -7.03518072e-06 -2.06261325e-06
      1.06694406e-05 1.44370415e-05 7.32135368e-06 -2.01483226e-06
      -2.78350744e-05 2.05845990e-05 2.28503291e-06 7.50145955e-06
      -2.66328316e-05 -1.17684249e-06 3.50414416e-06 -1.83123611e-05
      -3.18255911e-06 4.35927068e-05 1.45027425e-05 2.92887489e-06
      9.79365905e-06 1.65740657e-05 1.04305354e-05 -9.01177100e-06
      -2.89494892e-05 -1.81328664e-06 1.21768026e-05 1.49306716e-05
      -2.30041805e-05 2.58150867e-05 1.38275882e-05 2.90704997e-06
      1.17893785e-06 -1.83542361e-05 -9.96986546e-06 -1.07669248e-05
      1.98052639e-05 2.36775509e-06 1.64119610e-05 1.26220675e-05
      -9.56869098e-06 8.48802119e-06 -4.91679111e-06 3.87822320e-06
      -1.57098239e-05 4.94406368e-06 7.39480765e-06 2.59762655e-05
      -9.29982343e-06 -2.35074549e-05 -1.14589138e-05 -5.92334845e-06
      -2.54525730e-05 2.42636197e-05 2.21014470e-05 7.58013493e-06
      -9.79472588e-06 5.53045129e-06 -2.05241054e-06 -3.64648913e-05
      -1.76503272e-05 4.11571018e-05 1.90730025e-05 2.42406190e-06
      -4.14438819e-06 4.64070263e-06 -2.65740027e-07 -7.90629656e-06
      -5.15456941e-06 1.39650766e-07 1.28907059e-05 8.32960086e-06
      -8.03908733e-06 -3.24523921e-06 1.82128151e-05 1.13510960e-05
      1.13076162e-07 -5.00897158e-06 1.50738276e-06 -1.46851080e-05
      -4.68841899e-05 -6.70607915e-06 1.84094806e-05 2.52750651e-05
      -2.74658614e-05 -2.22577582e-05 7.38201470e-06 3.78426421e-06
      -1.06872039e-05 -8.30836507e-06 3.19687206e-05 2.69097382e-05
      -5.65880555e-06 -3.51139249e-07 1.92906032e-06 6.36029426e-06
      -1.50499018e-05 -6.48023979e-06 2.78797597e-05 2.91021515e-05
      3.62435640e-06 3.92765833e-06 -3.92068728e-07 -1.79908716e-06
      -8.04300362e-06 2.43194972e-06 2.76383344e-05 2.50735156e-05
      -4.22842095e-06 1.75698881e-06 1.35930277e-05 8.06711614e-06
      -1.84971850e-05 -9.16871886e-06 1.23354894e-05 9.79257584e-06
      -9.73315309e-06 7.14786381e-07 1.07952819e-05 5.09644997e-06
      -1.56852184e-05 -8.10749862e-06 4.58258410e-06 7.46560090e-06
      -2.89613467e-06 -2.19765539e-07 1.87974183e-06 6.10876441e-06
      -9.70691963e-06 -3.56875631e-07 5.56050645e-06 8.60033470e-06
      8.16483134e-06 1.72249861e-06 4.76663354e-06 1.67506169e-05
      5.60311901e-06 -1.74567083e-06 -2.08375468e-06 1.04305491e-05
      8.58203202e-06 1.84576891e-06 4.66819984e-06 1.99120077e-05
      -1.47242063e-05 -2.07412886e-05 -7.79755919e-06 -1.28295505e-06
      -8.78853552e-06 4.58162867e-06 1.84650162e-06 2.46064906e-06
      -5.67450525e-06 -4.50829975e-06 -1.06550215e-05 -1.20444474e-05
      -1.19024378e-06 2.72189254e-06 -1.26961368e-06 -3.24175790e-06
      -2.56347198e-06 -1.33727135e-05 -1.49167283e-06 5.54998860e-06
      9.23894549e-06 1.61792523e-05 9.28501595e-06 2.79369779e-05
      1.60149248e-05 -4.71738485e-06 -2.77887068e-07 5.65607206e-06
      2.41369999e-05 4.73786076e-06 1.98681500e-05 2.42607985e-05
      3.40934730e-06 -2.92620443e-05 -1.87909191e-05 -8.54887162e-07
      2.21504997e-05 -9.60545913e-06 1.60545205e-05 5.91483285e-06
      -9.20850744e-06 -3.62458786e-06 -1.91372164e-05 2.26623251e-06
      -3.10709396e-07 5.17336139e-06 1.75966907e-05 1.19492224e-05
      -5.17243780e-06 -1.29231614e-06 -2.84783914e-06 -1.66886298e-06
      2.98559871e-06 1.81547566e-05 1.36988037e-05 -7.27446513e-06
      7.90740796e-06 -2.08591209e-05 -2.08570200e-05 2.40018335e-06
      2.22797898e-05 -9.19164540e-06 -2.34420841e-05 -5.81581753e-06
      6.24724707e-05 1.00219688e-06 -6.44148440e-06 2.83511190e-06
      6.32307929e-05 -2.57088286e-05 -2.56294024e-05 -1.86063133e-07
      1.38697960e-05 1.22187237e-06 -1.09469738e-06 3.33536591e-05
      1.20758168e-05 -3.01924338e-05 -9.00800114e-06 -6.60366823e-07
      1.20832401e-05 6.39980544e-06 4.80323524e-06 2.37035783e-05
      1.72108394e-05 8.80864320e-07 -5.14242856e-06 -5.91717617e-06
      -1.81315736e-05 -1.06579237e-05 1.79117742e-05 1.85486497e-05
      3.05136609e-06 -3.27682574e-06 -4.94562710e-06 -1.10856936e-05
      2.22500548e-05 1.76935810e-05 -6.76049376e-06 -6.65666903e-06
      3.28354072e-05 -1.38175483e-05 -4.17150295e-06 -1.34892355e-06
      -5.26837948e-06 -2.33323735e-05 -1.86299803e-05 5.85311591e-06
      1.00259558e-05 -2.00357517e-05 -6.70233521e-06 5.94451376e-06
      1.10028695e-05 -9.64860760e-07 -1.58311468e-05 -4.52296172e-06
      -9.12919859e-07 -2.42309306e-05 -3.89728893e-06 -1.34946704e-05
      -1.64968842e-05 -7.11054145e-06 2.04530465e-06 1.89519342e-05
      -3.12624834e-05 -1.65455713e-05 -6.67075994e-07 -8.76016293e-06
      9.82885740e-06 2.28527624e-05 2.74703380e-05 1.31354696e-07
      1.65852598e-05 6.45712589e-07 -2.31844837e-08 -5.98359202e-06
      -2.77303279e-05 -2.47102230e-06 2.21746541e-05 1.79762646e-05
      -9.78907610e-06 6.46558738e-06 7.62669470e-06 1.00989564e-05
      3.84540317e-06 -4.00761382e-06 -1.59841366e-05 -9.17127545e-06
      1.31613308e-06 -9.85167844e-06 1.36174904e-05 -5.78593927e-06
      -5.08403855e-06 -9.85656607e-06 -2.31665126e-06 4.56524276e-06
      -1.37313491e-05 -1.51431450e-05 2.05306901e-06 1.31485240e-05
      6.16918305e-06 -2.62170361e-05 -4.84055090e-06 -1.71492993e-05
      -2.10849666e-05 1.38713585e-05 5.27358998e-06 5.15666898e-07
      -8.56740280e-06 -1.46078904e-07 5.47157515e-06 -2.31201757e-05
      -2.06553595e-05 1.07851429e-05 2.38305220e-05 1.64115791e-05
      5.62534524e-07 9.14474822e-06 -4.07722155e-06 -2.12856321e-06
      3.59303471e-07 -1.89634966e-06 9.19889590e-06 6.31485591e-06
      1.79691306e-05 1.16326773e-05 2.16100980e-05 1.00645120e-05
      -1.17023228e-06 9.41579583e-06 -2.56827525e-06 -4.05140827e-06
      -2.54545444e-06 1.02176273e-05 2.03551699e-05 1.37500565e-05
      -6.85293435e-06 2.71274757e-06 9.62695322e-06 1.00398711e-05
      -8.77387629e-06 -1.05898825e-05 2.02267911e-05 3.28199021e-05
      -6.65205198e-06 8.90725573e-07 5.67121242e-06 8.43956423e-06
      1.50492974e-06 4.73914679e-06 4.01239813e-05 3.05287031e-05
      -4.29250485e-06 -5.33607044e-06 -9.70256679e-06 -1.16698538e-06
      1.33041767e-05 1.55415364e-05 1.66110494e-05 7.65774985e-06
      2.46351715e-06 -7.29663861e-06 -1.11787667e-05 -1.38860987e-05
      3.82566577e-06 1.59996252e-05 9.37114874e-06 2.47184516e-06
      -9.76205774e-06 -2.10121780e-05 4.06397385e-06 3.03004254e-06
      -4.11328529e-06 -2.89675745e-06 5.93970435e-06 1.57836312e-05
      2.51770075e-06 5.82507619e-06 6.82764778e-07 3.79137259e-06
      -5.22769278e-06 -8.24045674e-06 1.28819902e-05 1.73940844e-05
      -3.01056320e-06 7.23405174e-06 8.53166875e-06 2.37043037e-06
      8.39613494e-06 -3.50634105e-06 -7.42658267e-06 -3.21354173e-06
      -9.33147840e-06 -2.90703929e-06 -5.33551514e-08 -2.51306892e-06
      -7.90903687e-06 5.29020554e-07 1.71080483e-05 -1.11136467e-06
      -1.33711692e-05 2.82912856e-06 -2.08028200e-06 8.19353772e-06
      3.49452307e-06 -1.28660292e-06 1.16611745e-05 -1.37063234e-05
      -5.77223091e-06 1.55170837e-05 6.03268018e-06 1.23571033e-06
